282 100
triều 0.777812 0.17949523 -0.42432323 -0.24166772 -0.78495073 -0.41258076 0.29632387 0.16033743 -0.36706436 -0.6244204 0.32943803 -0.26478216 0.23747288 0.2971892 -0.60337025 0.3948902 -0.533601 0.008500293 0.39395693 -0.4351073 0.3764441 -0.53065103 -0.2241864 0.025404528 0.49392146 1.1075565 -0.4534626 0.38152707 0.9827547 0.3009347 -0.056589246 -0.26709014 -0.010572862 0.54307216 -0.08539065 -0.32096833 -0.018737212 -0.08325845 -0.16591756 -0.19434187 0.7566809 0.04764025 -0.4838678 -0.18496059 -0.5162582 0.023963004 -0.28124264 -0.55509305 0.1329456 -0.21018498 0.22219315 -0.03886386 -0.17267519 0.7609507 0.22496666 -0.19119298 -0.12571587 0.028378626 -0.573728 -0.3567126 -0.20596553 -0.09831423 0.079857476 -0.14970157 -0.29185304 0.19999345 -0.20830475 0.5202394 -0.4055969 -0.42874286 0.21280603 -0.79462326 0.015222474 0.18037882 0.13326047 -0.2439794 0.103373356 0.5240072 0.35070637 0.42641315 -0.012019034 -0.052909248 0.13044904 0.2961568 -0.5089633 -0.33448365 -0.48310655 0.031642634 -1.0294038 -0.039805274 -0.46887594 -0.4612657 -0.33444065 -1.1451731 0.17773972 0.22106676 0.26326734 0.061510555 -0.15174788 -0.18062687
là 0.43691012 -0.11406684 0.03215893 0.22640821 -0.5321292 0.1080196 0.53164196 0.42224696 0.08638828 -0.22479191 0.55898476 0.21973535 0.046155628 0.08214037 -0.44978362 0.27514327 0.0007454527 -0.24667305 -0.34919384 0.26483062 -0.41978264 0.23876806 0.36672056 0.6847464 0.37152463 0.19736151 -0.19241971 -0.6222123 0.6724296 -0.2654115 -0.04243353 -0.691109 0.4706212 0.121310875 -0.41003567 -0.3315386 0.51828176 0.4394609 0.058981396 -0.14652221 0.80371445 -0.0054839365 -0.32937193 0.36561337 0.10430983 0.30707842 -0.17848548 -0.090598315 0.4653193 -0.5191257 0.0356236 -0.31433663 -0.38074967 -0.023456464 0.52821064 -0.4205325 -0.4281897 0.005571651 -0.67905265 -0.1475308 0.064160846 0.7512888 -0.43200636 -0.42530704 -0.12536663 0.057825655 -0.14347947 0.117054984 -0.23967889 -0.57791996 0.15504147 -0.11190096 -0.0887618 -0.19878116 -0.2671312 0.006411297 -0.12276135 0.335861 -0.43560404 -0.2742794 -0.092516616 -0.49109745 0.300675 -0.18140092 -0.419477 0.39070424 -0.81162006 -0.018031493 -0.37306023 0.15248658 0.3050814 -0.43876913 -0.07873543 -0.3428521 -0.1698363 0.22751199 -0.6306441 -0.16639656 0.20501119 -0.061274484
thế_nào 0.015014183 0.39872757 -0.6864933 0.6008129 -0.93488026 0.63657767 0.2291844 -0.13731068 0.34529012 -0.21802123 0.5682105 -0.89386547 0.67432237 1.2030171 -0.2759851 -1.0345602 -0.46298605 0.7048877 0.026655098 0.068234205 0.11830094 0.88226086 0.2198023 -0.110149324 0.71308637 0.17109965 -0.6301192 -0.98433155 -0.16497973 0.7181967 -0.32649446 0.19658308 0.43362367 -0.105262674 0.32871988 -1.1763853 0.77682394 0.25826654 0.24885666 0.19997144 0.22566336 0.41392305 -0.050972074 0.26789397 0.17054123 0.85978794 -0.21723324 -0.46779066 1.3596482 -0.2331516 -0.29260042 0.02437146 -0.04838584 0.1710222 0.29668674 -0.4244168 -0.71528256 0.28441718 -0.28615296 -0.22515233 0.37113732 0.03889652 0.3394665 0.5666344 -1.4326526 0.71098375 0.7723357 -0.21440662 0.57906044 -0.53333294 -0.15200266 -1.2615334 -0.8717042 -0.4612231 -0.6272232 0.23024791 -0.45694244 -0.11808106 -0.20760554 0.16299158 0.30411878 -0.4145865 0.913441 -0.041405294 0.38459152 0.30204433 0.47946194 0.29305124 -0.31541112 0.3178138 -0.23849475 0.3934785 -0.24161011 -0.4789659 -0.43952164 -0.37677294 -0.48830754 0.01677098 0.17646754 -1.111896
vì 0.41372806 0.13527778 0.36870724 -0.06557788 -0.2824108 -0.16289465 0.18312085 -0.5461682 -0.10309445 -0.3410671 -0.038128227 0.27923435 0.13304716 0.33657083 -0.25395203 0.36195764 -0.1439522 0.19057257 0.07548837 0.34886125 -0.108551785 -0.19111103 -0.10610429 -0.17764783 0.52542967 0.040659092 0.2949168 0.1486428 0.4045935 0.12133699 -0.040163722 -0.5183417 -0.11243001 0.46137223 -0.12940095 -0.6528059 -0.30141523 -0.02466342 -0.12532744 -0.122032695 0.698969 0.08552258 -0.119694136 -0.34528416 -0.47787887 0.24363093 0.19766136 0.34201887 0.34431124 -0.31551966 0.3232111 -0.09836516 0.38631153 -0.21207507 0.27773035 0.05145342 -0.46926636 0.19506577 0.16362983 -0.8326674 -0.623149 -0.07127584 -0.3812203 0.4621649 -0.10256519 0.31974784 -0.08979331 0.4565236 0.26844198 -0.16287649 0.22334416 -0.3952216 0.05810809 0.17493472 -0.13497974 0.029293573 -0.10951214 0.33775225 0.62294394 -0.26087198 0.049480896 0.09009499 0.05267769 -0.07788096 -0.2784735 -0.38048857 0.03680434 0.16843563 -0.50621974 0.07738474 0.603338 -0.45256075 -0.3948289 0.19115531 -0.053245377 0.2365864 0.5065266 -0.0026688525 0.3492005 0.15683591
sao -0.15237047 0.045938525 0.015037218 0.2706637 -0.53913975 -0.11367473 0.115394406 -0.03211678 0.004820401 -0.21921477 0.22150199 -0.33915398 0.026682837 -0.035730433 -0.5712247 -0.019342931 0.22521538 0.10498516 -0.045693662 0.057111368 0.2118172 0.08401937 -0.01308075 -0.32388225 -0.11142355 -0.18751922 -0.3833868 -0.13974129 0.034860656 0.42227393 -0.23712605 0.20218663 -0.09918374 0.19725496 0.15138295 -0.6250914 -0.06810308 0.0491213 -0.23774958 0.35309038 0.20294234 -0.056595974 -0.2719639 -0.24720716 -0.08966213 0.18550274 0.25377795 -0.034634132 0.18466215 -0.3014802 -0.13775821 -0.20138937 -0.29141006 -0.2530117 0.28017405 0.27556208 -0.12187418 -0.1273619 -0.10673953 -0.40017074 -0.08158417 0.23189686 -0.1439749 -0.008523721 0.27468002 0.11149712 0.46120623 0.322138 0.74866015 -0.010007962 0.3400014 -0.34564176 -0.21046889 0.020688074 0.22511925 0.25788054 -0.46116075 0.1171329 0.09144999 0.2514715 -0.036312483 -0.07993296 0.37260458 -0.096939296 -0.1808453 -0.09942088 0.14510988 0.050090592 -0.10103262 -0.20453873 0.71950537 -0.357708 -0.15148057 -0.0046261395 -0.27190834 0.07005527 0.022072885 0.200684 0.14290135 0.35366642
trong -0.38573217 0.17364381 0.04505938 -0.5294018 -0.37612092 -0.3636389 0.023839122 -0.47869885 0.14626457 -0.46104485 -0.6716277 -0.6642494 0.3751711 0.2993248 0.56393063 -0.0067239446 -0.03684147 0.2153228 0.13299483 -0.21143489 -0.8753273 0.5319846 0.4260889 -0.16161963 0.42721045 -0.26364923 0.34199616 0.023589041 0.42112985 0.61700577 -0.52133083 -0.21300595 -0.22507206 -0.40745482 -0.41740906 0.10201966 0.32198346 -0.20470414 0.24527399 0.14321789 0.44145414 0.5127966 -0.01558768 -0.39194217 0.5871785 0.37403116 -0.33664137 0.54202986 0.41753933 0.17832313 0.2923825 -0.3223442 0.24701865 -0.07282976 1.0270885 0.48067528 -0.6656397 -0.65684617 0.018260533 0.16117392 0.06423075 1.2325286 0.51863486 0.37786436 -0.2233322 -0.30731165 0.0013458739 -0.027126249 0.20141509 -0.3134244 0.42501146 -0.32582423 -1.1738807 0.50589204 -0.011729886 -0.3669691 -0.39015535 -0.17864323 0.47756222 -0.64896107 0.13753356 -0.9859739 -0.4369805 0.14381824 0.53418034 0.60279024 0.011152393 0.41418442 -0.17295828 0.050737817 0.8595916 0.11632055 0.2566236 0.5787843 -0.47361264 0.41438508 -0.02381995 0.06713223 0.3113866 0.27697232
thì -0.36263818 0.23001388 0.3677931 0.8071861 -0.51164407 0.4977475 0.40495187 -0.016699303 0.3149258 -0.14244302 -0.596048 0.43839613 0.43515366 0.5271526 0.6368539 0.44746956 0.5154644 -0.3528134 -0.70699453 -0.92130744 0.028502468 -0.0018511616 -1.2061367 -0.5693388 -0.28553566 -0.047273267 0.073638625 -0.08530511 -0.43307558 -0.16508569 -0.031501897 -0.6745032 -0.4422223 0.60220015 -0.15358543 0.742111 0.57511604 0.4417612 -0.30560768 0.581196 -0.21234365 0.41789547 -0.24041395 -0.7278146 0.90537655 0.45318505 -0.574037 -0.42746848 -0.57644665 -0.71928453 0.13057515 -0.49709037 -0.24694608 -1.0056567 0.16154712 -0.2559656 -0.065697394 -0.17061503 0.07065264 0.1602701 -1.1757238 -0.35329744 -0.26604176 0.5440559 -0.38492054 -0.14825213 0.46182603 0.47440267 -0.42473537 0.049027395 0.31258482 -0.6869165 -0.6287332 -0.6982915 0.30537596 0.26508257 0.4983823 0.093486816 0.23141089 -0.25839585 0.01568044 -0.5254208 -0.23375109 0.32119235 -0.18917471 -0.4862439 -1.4200724 0.15225436 -0.10140591 -0.057074517 0.69955546 1.2027925 0.048118636 0.020817379 0.3198534 0.34940797 -0.33193776 0.7929972 -0.13434757 -0.14129263
xuống 0.4535724 0.95827895 0.20038047 1.1216879 -0.15459701 0.54937196 -0.32089573 -0.39634666 0.03718246 0.010675737 0.0532781 -0.7336293 -0.083874725 -0.09363507 1.1429989 0.60750884 0.8481454 0.67565906 -0.48665687 -0.23110819 0.33238834 -0.16637109 -0.95126736 -0.22357564 0.047386684 -0.7931669 0.65548277 0.26501435 -0.07009705 -0.28156674 -0.6032556 0.2151054 -0.05780918 0.07995713 0.51089805 0.50830984 -0.1582197 0.35349837 0.53581524 0.5531714 1.0708079 -0.16949755 0.19099987 -0.22543357 -0.06733076 0.2586091 -0.89140373 -0.5627789 -0.15234023 0.35140425 -0.21441865 -0.48516777 -0.15627596 0.09825244 0.09777515 -0.20602316 -0.45869914 -0.3472614 0.18628661 0.34023622 -0.36976665 -0.06374487 0.6918292 0.7319317 -0.48147008 0.091686234 0.10699216 -0.32743958 0.52718157 -0.57858306 0.8077453 -0.39738762 -0.81076306 -0.15550062 -0.14218888 0.43500355 -0.0849742 -0.042818304 0.11170847 0.0917038 -0.5822325 -0.72884005 0.43551633 -0.7243732 0.5851207 -0.18398711 -0.6615894 0.1834292 0.17017506 0.35730517 0.13051832 0.94476503 -0.12543295 -0.4969007 0.25592005 0.55696005 0.13434258 -0.022286426 -0.3597195 -0.22227415
dưới 0.26915798 0.2123922 -0.30146262 -0.4933124 0.12579843 -0.47806916 -0.05627301 -0.57913846 0.40455306 0.18590555 -0.06729422 0.49916676 0.083994456 0.14398381 0.59036654 0.5252938 0.8957759 -0.114129156 -0.5192022 -0.1919466 0.16671252 0.36418214 -0.43367565 0.07251275 -0.2748135 -0.27418175 -0.18124892 0.0855324 -0.105567925 0.4309743 -0.12786247 -0.3873934 -0.35725042 0.25011167 -0.2014939 -0.065334305 -0.06787444 0.8157015 0.18687724 0.23132488 0.06344558 0.6340025 -0.10259337 0.39730695 0.5959239 0.8384407 -0.9607868 -0.157066 0.24586251 -0.6343187 0.0993017 -0.10664654 -0.89589894 -0.2840096 1.3214844 -1.1643332 -0.6278983 -0.6069447 0.14785008 0.4481989 -0.14492539 -0.06478451 0.9224633 0.5415419 -0.15415531 -0.44804993 -0.23433849 0.2987845 0.21376593 -0.28577462 0.47140536 -0.88986576 -0.98741084 -0.2979371 0.20817775 0.58145124 0.20735025 -0.37310454 -0.23197924 -0.46959972 0.16497317 -0.11111844 0.73187435 -0.5425743 0.36843598 0.9055643 -0.7409605 -0.20230864 0.029276079 -0.030611888 -0.6339209 0.30502158 -0.5093325 0.4761451 -0.18862906 0.6084231 -0.19286953 0.56300247 -0.72136253 -0.27953392
còn -0.19753361 0.44534874 0.18112524 -0.1901041 0.12670706 0.24340434 -0.46236685 -0.4134215 0.6042706 -0.5221919 -0.032454 -0.7900153 0.6079257 0.37413946 0.3262947 -0.05636765 0.27432957 0.7922887 -0.28236437 -0.90331405 -0.055027425 -0.39243528 -1.2919198 0.08397644 0.3240231 -0.058366865 -0.66843396 -0.04428061 0.104395136 0.77004665 0.32804054 0.22915865 0.41686004 -0.33733392 -0.15203653 0.4932172 -1.1077682 0.3496408 0.10801892 0.26348358 0.24413322 0.3917324 -0.751246 -0.52412784 0.22083989 0.3788808 -0.20994449 -0.4528674 -0.90224576 0.25940713 0.48769942 -0.390773 -1.1521189 0.5314872 -0.6574858 -0.5700891 -0.66171616 0.28045627 -0.8935264 -0.2514807 -0.9542276 -0.35287172 0.11345403 1.1930774 0.4039967 0.4577136 0.31049445 -0.24493955 -0.7150817 -0.8572388 0.033125676 -0.5554926 -0.28806204 0.015915925 -0.4228817 0.11174519 0.13315889 -0.44650963 0.41724938 1.2054106 -0.7215704 0.11485657 -0.04157205 0.6032165 0.041982494 -0.30414826 -0.5911456 0.21781337 -0.022072127 0.4426809 -0.5531522 -0.16589832 -0.99919695 -0.096527 0.6228486 0.24992812 0.09999179 -0.24004592 0.6994894 0.26578903
lại 0.039556768 -0.4915271 0.15744416 -0.046087958 -0.13671409 0.13079941 -0.4237842 0.6573878 0.10946518 -0.07540795 -0.2564953 0.39670062 -0.086548224 0.47536963 0.22369272 -0.24884844 0.5566394 -0.091898836 0.63944 -0.19354601 0.419214 -0.29687187 -0.4844675 -0.5786724 -0.20178068 -0.015045368 0.14621761 0.20220451 -0.07200914 0.33204743 -0.120613955 -0.23685707 0.030890165 -0.09319708 0.08391371 -0.17042407 -0.44693184 0.061779547 0.12939934 -0.091336586 0.17315924 0.29395026 -0.17898308 -0.04924307 0.04692996 0.2255159 0.15822455 -0.24933754 0.3657653 0.0057587777 0.45280072 -0.25562978 0.14198142 -0.54053825 0.3013925 -0.20821223 0.48623213 -0.5353288 -0.52549666 -0.037517287 -0.42679018 0.31470466 0.25252053 -0.0067630718 0.123671524 0.4598038 -0.3777782 -0.05568746 -0.25428054 -0.16442919 0.052495953 -0.08838742 -0.43744949 -0.15425527 -0.27878624 0.052823823 -0.19787195 -0.2584529 -0.055362955 -0.06370837 -0.23586152 0.003680697 0.5346795 -0.1977795 -0.15142433 0.11966912 0.061542008 -0.03614218 -0.2018327 0.14841165 0.11097257 0.16027656 -0.23651916 -0.054085888 -0.53425264 -0.34345874 0.1581354 0.7374932 -0.14868017 0.23729914
mọc -0.099803604 0.089830704 0.32043478 0.22452559 -0.21257167 0.69560844 -0.019450016 -0.24072394 -0.12552889 -0.74997455 -0.14219338 -0.34005097 0.21564838 1.1098741 0.7169922 -0.54962224 0.33573818 -0.17546077 -0.31477627 0.24883564 0.5631189 -0.19789708 -0.67592245 0.19290628 -0.033010487 -1.2938334 -0.2624368 0.040604215 -0.31301987 -0.15979709 -0.4882563 0.16907944 0.21235217 -0.028184287 0.083491124 0.24900718 -0.27318442 0.56353736 -0.436959 -0.069818616 0.1818707 0.14634518 0.18702473 -0.6104438 -0.060489703 0.15825161 -0.67752534 -0.30236265 0.5692302 0.35350037 0.55731237 -0.81953704 -1.0699598 -0.09227835 0.29752493 -0.2993968 -0.86720586 -0.27542406 -0.048359856 -0.099285044 -0.5478575 0.37568787 0.8536873 0.48352352 0.56641304 0.25543892 0.44382605 0.09185443 -0.30691177 -0.32762212 0.27890754 0.21312666 -1.4292976 -0.392814 -0.1320953 0.24779634 -0.08415979 -0.8577953 0.6478724 0.0901801 0.026236594 0.13553226 0.9361705 -0.075775 0.5601354 0.045282695 -0.817377 -0.0664767 0.48576343 0.76589984 -0.0656592 -0.27157816 -0.7729894 -0.06421467 -0.09841227 -0.075544715 0.33416936 -0.07169711 0.5048013 1.0191745
lên 0.25867096 0.14421134 -0.33692172 0.2445719 0.0430869 -0.18849432 0.84363747 0.14944367 -0.022244884 -0.17588939 -0.13589333 0.07334932 0.028323565 0.61402535 1.0011779 0.99811757 0.36666572 0.4203729 -0.14644384 -0.35598117 0.57936716 -0.60687983 -0.99344474 0.29478452 0.5427916 0.8189605 0.3671698 -0.15700634 0.22673038 -0.21161415 -1.5518626 -0.655448 0.088149756 0.50072706 -1.0175796 0.29779297 -0.6989807 0.35603058 0.65782636 0.2971246 0.47198617 0.12039966 0.24335957 0.39501888 -0.22898966 -0.16019525 -0.3844168 -0.8845759 -0.2539456 -0.12754117 0.25714198 -0.34460723 -0.24251449 -0.1003442 -0.19353092 0.45457476 -0.6705927 -0.3754678 -0.46495274 0.7267062 -0.06343522 0.19769365 0.60877025 0.10724885 0.1412262 0.8370783 0.2723861 -0.37254885 0.58095413 0.45697427 0.8240091 -0.42605934 -0.386132 -0.18218239 -0.37289205 0.26699087 0.20542878 -0.3637023 0.9059423 0.12497168 0.38457194 0.6624654 0.70673275 -1.1735886 -0.5046522 -0.12497364 -1.015019 0.34710476 0.73127896 0.27156258 -0.28761375 -0.3902657 0.14298448 0.3041083 -0.1183829 -0.22042353 0.15436155 -0.28589907 -0.78725946 -0.3409232
trên 0.988767 -0.53661144 -0.8306383 -0.4893865 -0.045169275 0.05522235 -0.015235101 -0.43832552 0.05454811 -0.13456556 -0.7348379 0.23988643 0.093738064 0.7532113 -0.43069434 0.060674604 0.2578451 -0.15533453 0.35607678 0.53332555 0.12426698 0.6979188 -0.5141749 0.2402001 0.35262305 -0.57728446 0.21764408 -0.1955245 0.4209601 0.10663936 0.25747392 -0.36908638 0.19137192 -0.17321004 -0.08557603 -0.5252705 0.46365115 0.6248257 -0.030071137 0.54867214 -0.92357177 0.77877 0.2417298 0.4287161 0.06651397 -0.014091784 -0.6634005 -0.37000558 -0.4247605 -0.03763447 0.72238237 -0.2991419 -0.21122192 -0.3472237 0.49021947 -0.29652342 -0.28558624 0.0041839755 -0.022959013 -0.2586446 0.6101049 -0.02073175 0.23175064 0.637634 0.62338644 0.16483864 -0.92072225 0.1117861 0.19492738 -0.28994727 0.47389966 -0.8118563 -0.5611691 -0.7016341 0.051693406 0.17894481 0.20443505 -0.39185888 0.3869081 0.095813565 0.47023642 0.84544665 -0.04240794 -0.570597 0.29309338 -0.5089518 -0.82650936 0.48274285 -0.21124138 -0.22700973 0.4016047 -0.4034835 -0.5221874 0.4355629 0.35836384 -0.025186185 -0.21055505 0.5150739 0.6986656 -0.27514097
có 0.41608903 0.11233299 -0.21723655 0.23953111 -0.5818454 -0.34449616 -0.20042993 0.2523566 0.0702331 0.7977813 0.205835 0.0018604746 0.51062214 0.08918478 0.008133121 -0.2609697 0.03637392 0.4132953 -0.28239572 0.0704023 -0.023154613 0.064915344 0.2983575 -0.032598473 0.21006648 0.079810955 0.10735813 0.1592687 0.08766281 -0.037323482 -0.18216647 -0.27566537 -0.017003119 0.13632445 -0.14314972 -0.52421975 0.013535985 0.22951627 0.19434808 -0.25659278 0.034214117 0.3128791 -0.25078076 0.23332427 0.67146176 -0.38501218 -0.40946952 0.12265278 -0.13356327 -0.22794834 0.019826772 -0.44923958 -0.09149106 -0.13757686 -0.31180975 -0.26518163 0.15132676 0.35725302 0.13960768 -0.108171925 -0.043840766 0.36494714 -0.07367785 -0.17292498 0.19420905 0.84701437 0.3008503 0.31285313 0.012340846 0.3101604 -0.42228395 -0.00037725194 -0.52243376 -0.15017535 0.19380525 -0.07988403 0.21994738 0.07929583 0.46083212 -0.1400675 0.05810234 -0.4961192 0.24673381 -0.1982314 0.14091319 -0.1483192 -0.027242998 -0.083324976 0.03365912 0.44876653 0.11893872 0.24553668 -0.09000103 -0.34583744 0.031859174 -0.15530224 0.109073915 -0.025659416 0.46305496 0.03817138
có_thể -0.20253615 -0.28859252 0.027739787 -0.5020409 -0.5211882 0.15028115 -0.15411039 0.22473459 0.051267974 -0.22965626 -0.17811942 0.6589044 -0.18814805 -0.15513942 0.02486545 0.1961814 -0.3756501 0.008129713 0.49385905 -0.040333472 -0.15743864 -0.020197833 -0.6406827 -0.51123434 0.43179557 -0.41168693 -0.34969893 -0.011431615 0.10585875 0.5191219 0.43179455 -0.40732408 0.0997696 -0.5453242 -0.22577125 -0.23656887 0.43998176 0.32885614 0.24489158 -0.26607424 0.331102 -0.23212242 0.13933444 -0.34054366 0.45106936 0.10661222 0.40907 -0.43461 0.7699492 0.5057723 0.60257244 -0.18221173 -0.086212166 0.20775783 0.1026243 -0.3679131 -0.2478029 0.22210968 0.28503397 -0.43941322 0.10950581 -0.3516722 -0.06105699 0.37918884 -0.38670108 0.56807464 0.47969526 -0.3352484 -0.22244094 -0.3404716 -0.20395727 -0.54590124 0.18156508 -0.07096494 0.20755808 0.25036222 -0.14874321 -0.6707843 -0.34809732 0.20056443 0.36791733 -0.29886535 0.20001833 0.38807094 0.36276203 0.71812207 -0.32444817 -0.4447692 0.18464683 -0.29717684 -0.044735737 -0.7112687 -0.7083776 -0.06197179 -0.45506003 -0.34216672 -0.17542785 0.5634962 -0.16209583 -0.56331635
để -0.0022313604 -0.3099112 -0.17333168 -0.18043886 0.07331364 -0.224239 0.10936316 -0.4040306 -0.079346605 0.28336862 0.16850017 -0.87589973 0.8350515 -0.6453413 1.0213903 0.24613589 0.6107042 0.9218928 -0.7758933 -0.31442872 -0.1551332 -0.28336233 -0.71180326 0.2703762 0.1588513 0.3344762 0.39787084 -0.35482207 -0.32748032 0.99947596 0.101003364 -0.2389656 -0.06307487 0.16081263 0.054660026 -0.4595751 0.04643313 0.46464282 0.36182585 0.42831543 0.36543673 0.58055013 -0.09606088 -0.2977257 0.40371853 0.80093896 0.34864232 -0.6080014 1.008468 -0.23035783 0.44309476 -0.034447808 -0.58991504 -0.53041613 0.3855966 -0.36791828 -0.2662571 0.12446099 -0.0033569946 -0.4789618 -0.63467044 0.14840485 -0.8042016 -0.15450574 -0.69604975 -0.15670513 0.3777694 -0.025363786 0.66110647 0.059882756 -0.07238317 -0.995016 0.2907933 -0.13994849 0.4530025 -0.21105458 0.47066638 -0.19016749 -0.20924447 -0.14057533 0.9422015 -0.6862009 0.2774946 -0.720604 -0.1706179 0.0049532335 0.6238938 0.2970438 -0.66769737 -0.11380201 -0.6245966 0.10443157 0.4571496 0.18051805 -0.4317807 -0.35848296 0.15721896 -0.17001477 -0.06654065 -0.59776205
những 0.43845102 -0.5319995 -0.3080313 -0.25024667 0.37143287 -0.19863641 0.024566423 -0.3265452 0.25371253 -1.1129957 -0.7532539 0.12751111 0.4444518 0.682818 -0.08187558 0.19841842 1.1442516 0.74080086 -0.41625744 -0.13434905 -0.296615 -0.21107668 -0.54529166 0.3938202 -0.021355983 -0.1769002 -0.37211064 -0.34958547 0.78459305 0.17956538 -0.7496753 -0.040460356 -0.54115725 0.6627364 -1.0464205 0.13668154 0.09047912 -0.3959878 -0.11211631 0.08658833 0.3756427 0.24507064 -0.18895635 0.37561038 0.15704305 -0.10191463 -0.14320287 -0.21052465 0.82304895 -0.046822492 0.14657386 0.0204329 0.4573529 -0.534328 0.01845492 0.52466923 -0.37968695 -0.31459314 0.2584069 -0.030339103 -0.4528905 -0.45771936 0.3091934 -0.009746192 0.63450664 0.38682228 1.3198096 1.0064611 -0.50609136 0.18251824 -0.36838865 -0.10831876 0.2779737 -0.32624432 0.22391796 0.25991118 -0.57153904 -0.40836054 0.8067655 -0.67828417 -0.06512356 -0.8144421 -0.36930698 -0.5780212 0.44498888 0.80185425 -0.11235392 -0.069189966 0.54971576 0.8793255 0.10661603 0.8604292 0.23853965 -0.12145092 -1.3779976 -0.010047478 -0.53854585 -0.11786744 0.16210353 -0.17560174
phương_pháp 0.17243409 -0.26050302 0.10394918 0.48391587 -0.49509877 -0.075961016 0.26913315 -0.45060855 -0.42342553 0.017971717 -0.26675996 0.14656329 0.80687785 0.25438496 0.7623069 -0.020680804 0.022796528 0.31066313 -0.21028705 -0.25924748 0.107624464 -0.7548001 0.7861179 -0.2260939 0.6607005 -0.006642399 -0.2677832 -0.10746714 0.7397614 0.2602599 0.09890452 -0.33870184 -0.09641116 0.715106 0.07921594 -0.168322 0.35921013 0.986283 0.22083616 -0.09912156 0.92811 -0.54492897 0.48458666 -0.453074 0.43133667 0.6154282 0.30062425 0.11517019 0.75144494 0.32873878 0.57777596 -0.084703125 -0.21063045 -0.16550209 0.82352865 0.16544756 -0.30287606 0.32076618 -0.1271041 -0.44476408 -0.55036587 -0.27158532 -0.48642972 -0.012865055 -0.2920099 0.6683414 0.11095006 -0.26846167 -0.10191711 -0.2363978 -0.12391499 -0.6857383 -0.14036341 0.04664502 0.56677705 0.051544856 0.6166083 -0.5247297 0.09827256 0.015120987 0.36247766 -0.92581373 0.14749768 -0.11147525 0.35812506 0.18101065 0.0032522783 -0.42492256 -0.013784652 -0.8077872 0.39149243 0.12978293 -0.5341352 0.8615766 -0.10096703 0.33983314 -0.43496954 0.5754895 0.2531643 -0.41130602
nào 0.048857927 0.15127404 -0.45174918 -0.019557947 -1.0298247 -0.019638058 0.5985312 0.379774 -0.4654056 -1.0533779 0.018876374 -0.35271567 0.15589055 0.7712589 -0.1341686 -0.47455686 -0.21641383 0.54773265 0.13848488 -0.06561661 0.42377505 -0.4031426 0.52193576 0.0330625 0.21271841 0.23465224 -0.629588 -0.054387663 0.3812371 0.84161174 0.11492603 -0.44116682 -0.45815298 0.16839276 0.29198802 0.29582936 0.6717536 0.66902685 -0.3222366 0.49338952 -0.31540456 -0.20601718 0.43158764 -1.0410433 0.3694199 0.40193206 -0.06489807 -0.21535654 1.591429 0.48963007 0.38261893 -0.8756164 -0.50935453 1.255693 0.48718852 0.04092372 -0.8319358 0.2893455 -0.0106101055 -0.37911227 -0.08913917 -0.66203845 0.15567397 -0.3701233 0.087051585 0.14354658 0.43256614 -0.8706105 -0.28496388 0.26475373 0.060339414 0.1310559 -0.3898604 -0.85165095 0.009159978 0.40471497 0.5426858 -0.44790286 -0.2869879 0.09258071 0.4786709 -0.8487299 0.4440408 -0.5905953 -0.31262764 -0.20508663 -0.37083456 -0.6721245 -0.85747105 -0.15788232 -0.085027866 0.6967265 0.1215668 -0.45004922 -0.65737796 -0.20701037 -0.48340368 0.44932547 0.75574976 -0.35941812
ngọt 0.5812516 -0.4815226 -0.16550145 0.95791125 0.22702333 -0.056418255 -0.14003074 -0.14600933 -0.43860486 -0.20340742 -0.36924556 -0.1169399 0.22201286 -0.2118117 0.9449363 -0.15287745 0.35392454 0.7578362 -0.19257942 -0.048784725 0.07941267 -0.3946594 0.2300838 -0.06340395 -0.044497453 0.116322316 -0.5103305 -0.58317536 0.10259852 0.23540004 -0.07759924 -0.9179714 -0.16655625 0.49067098 0.13713537 0.104664296 0.610846 -0.1271318 -0.2625386 0.2986374 0.78420526 -0.24015447 -0.4139122 0.1586191 -0.60384583 -0.1589477 -0.77394485 -0.006608225 0.3665156 -0.3300826 0.8958672 -1.0228492 0.12882635 -0.19765292 0.1541392 0.6381747 -0.38962796 0.20600046 0.5495862 0.28052682 -0.7194523 0.10342372 -0.3276721 0.52810943 -0.4762224 0.44080484 -0.14102548 -0.18265092 0.27735242 -0.3066146 0.24311936 -0.6906068 -0.390569 -0.093808234 0.07181384 0.52830285 -0.260874 -0.14638244 0.048541438 -0.31212863 -0.10394986 -0.46515366 0.047015052 -0.39199948 0.1872243 -0.0706037 -0.33594877 0.3240191 -0.28428772 0.110328756 0.08590548 0.6246117 -0.3294966 0.44260892 -0.3928356 -0.1728618 -0.71997106 -0.5822974 0.15936142 -0.24022049
nước_biển 0.72489405 -0.3845683 -0.2154669 0.3149914 -0.052278716 0.2554673 -0.017242637 -0.32311067 -0.24668464 -0.32729152 0.2446827 -0.55163985 0.2739684 -0.36841255 0.025363272 -0.10733554 0.09357049 -0.08676275 0.15783557 0.40156043 0.22746523 -0.12843376 0.025137562 -0.3916352 -0.20067364 -0.11156921 -0.40403113 -0.35231215 0.14494236 0.2337303 -0.718474 0.52594316 -0.14029785 0.3174396 0.29291475 -0.4533737 0.10455223 0.091307536 -0.4827011 0.07287886 0.83693105 -0.8781946 0.19548576 -0.32177606 -0.35045075 -0.15474768 -0.31952977 -0.44451112 0.21931177 -0.17673504 0.17497955 -0.5208749 -0.6134188 -0.5516208 0.784687 0.11866902 -0.934988 -0.18023232 0.37763175 -0.059698794 -0.25645357 0.7297099 0.8822714 0.2502451 -0.5517704 1.4242083 0.088580795 0.18390764 0.671178 0.1786921 -0.16817997 -0.9245659 -0.5454746 -0.07537373 0.021383397 0.27837998 -0.4711795 -0.24086526 0.29628783 0.07685586 0.025173562 0.5535956 0.8694477 -0.8263442 0.6154811 0.18422171 -0.11551047 0.18088287 -0.14173119 0.0472958 0.36714798 0.22091438 -0.18761747 -0.111279696 -0.13791618 -0.15079667 -0.36547494 0.09790786 -0.36953136 -0.6578615
mùa 0.039534874 -0.050119348 -0.15158463 -0.70655626 -0.14419866 -0.20946024 0.54933083 0.07138271 -0.28575474 -0.33405167 0.41587177 -0.4167373 0.112780616 -0.055411972 0.13170111 0.96687555 0.07777792 0.3212046 -0.18990272 0.08884439 0.20905572 -0.86266136 -0.5765714 0.18942288 0.08739881 0.045536134 0.0071592927 0.5144302 0.0047381865 0.28232804 -0.31325594 0.4225238 -0.6550699 0.61010206 -0.30819052 -0.7193554 0.27692735 0.10541836 0.35176826 0.5050091 -0.105676666 0.15402873 0.13114679 -0.7151537 -0.40925252 -0.725297 0.039463174 -0.76891077 0.37689447 0.28981408 0.5066257 0.11351042 -0.18095586 -0.14467533 0.5631569 0.24073063 -0.45314357 -0.56397915 0.05893469 -0.15668568 -0.49080843 0.6053441 0.28336242 -0.18868926 -0.27489674 0.7118292 0.06192766 0.9023101 -0.95529217 0.3489754 -0.13821897 -0.16379508 -0.9643411 -0.8001333 0.043317586 0.13839741 -0.42716885 -0.29248086 0.41773242 -0.3616934 -0.5320537 -0.50973564 0.15184133 -0.22046381 0.15892588 -0.7711124 -0.5963811 0.35329244 -0.2586749 0.29756707 0.37052095 0.23356128 0.121794134 -0.8575373 0.5024588 0.18496946 -0.10696945 0.71376723 -0.36441794 0.37009555
hè 0.55594325 -0.42568284 -0.22251524 -0.45793873 -0.003550555 -0.2817721 0.4502631 0.49425378 -0.058421012 -0.5446549 0.22044754 -0.5412662 -0.017772703 -0.6359264 0.667898 0.976972 -0.021891758 -0.14557803 -0.446078 -0.55241036 0.12308002 -0.7679027 -0.6555768 -0.2021678 -0.34308714 -0.43966094 0.10308676 0.18435094 0.2753253 0.54554623 0.11882173 0.1220362 -0.16557671 -0.65366274 0.06412953 0.03209006 -1.0615945 0.053262122 -0.05707286 0.65431935 0.07852346 0.31778696 -0.26703063 -0.5532964 -0.29510334 -0.74480146 -0.2301556 -0.4159965 0.04841353 -0.28154662 0.0049193907 -0.08470521 -0.20648508 -0.25646752 0.8531716 0.12463222 0.0004090181 -0.9981492 -0.2223568 0.034519732 -0.016201785 0.34329832 -0.45074216 0.60639566 0.21059345 1.0308652 -0.32819453 -0.0015349898 -0.6123531 0.1251083 0.37262118 -0.8965888 -0.7018981 -0.43359342 0.16750889 0.9980938 -0.33355668 -0.35759652 0.3645117 -0.64381933 -0.2567381 -0.9427447 -0.04324728 -0.809878 -0.034697056 -0.23462474 -0.29920387 0.43312526 -0.89488614 0.14889696 0.4430052 -0.32027504 -0.23546447 -0.24290395 0.028649438 0.35383722 -0.029534828 0.31826854 0.14825594 0.4841649
thường 0.15597579 0.20785181 -0.47114286 -0.5504269 0.069744006 0.34988442 -0.5911673 0.36521986 0.24864359 0.21243192 -0.060363602 -0.69227415 0.532168 -0.5931266 -0.029429888 0.06801119 0.4644822 -0.29605305 -0.104294784 -0.35872746 -0.0019832575 0.17805067 -1.3619586 0.025820151 0.6290272 -0.82570773 0.74377537 0.5383549 0.9561009 0.50814646 0.2568899 0.03216063 -0.3890553 0.46383852 0.096840695 0.4201709 0.17758739 0.5889304 0.15729643 0.22484653 -0.31827092 0.45229605 -0.34771052 0.3258551 0.3139676 -0.2539167 0.34524092 -0.5567985 -0.92041284 0.38712105 0.41551656 -0.43517986 -0.2114863 -0.46865997 0.0011165934 -0.43288967 -0.55614054 -0.073583774 0.041191425 -0.7512405 -0.23344149 1.1000686 0.27515823 -0.50676256 -0.116937414 0.05048889 -0.42545542 0.12960672 -0.582922 -0.29293662 0.012188721 -0.42161706 -0.84531885 0.16897874 0.4474388 0.74499863 -0.4776638 -0.12248381 0.22756976 0.73367745 -0.06825823 0.027213821 -0.27009708 -0.4312624 0.19247477 -0.33251083 -0.42495102 -0.045790263 -0.95049447 0.25995165 0.00057218404 -0.08196655 0.40651274 -0.7602163 0.7973381 -0.2173934 -0.09184606 -0.18422616 0.6663793 0.8525027
mưa -0.14805047 -0.011557378 0.057071574 -0.06963775 -0.56789035 -0.71763253 -0.103618026 -0.42222244 -0.021306036 -0.6410693 0.29706222 -0.44870266 0.4959666 -0.23383209 0.23511502 -0.3619536 0.037765663 0.10372652 -0.7244359 -1.0169773 0.50878423 -0.30459133 -0.71357757 -0.44782296 0.092150286 -0.022742579 -0.7209569 0.053636108 0.5789066 0.425613 -0.47478035 -0.2045365 0.23645721 0.32822862 -0.40021363 0.112840034 -0.5878396 0.43686727 0.35981154 0.16713886 0.49884367 0.7298771 -0.39372277 0.45221367 -0.78022116 0.033605844 -0.15370874 -0.9218714 0.15009603 0.43031844 0.10189889 -0.0016389561 0.43762857 -0.32652137 -0.06642823 -0.32038218 -0.5541056 -0.23283221 -0.17925553 -0.084059924 0.53237253 -0.8121844 0.6138603 0.67670643 -0.25905827 0.98205316 0.1296868 0.38216227 -0.5564581 0.24864367 -0.090929836 -0.34388816 -0.9284207 0.4646692 0.4090753 0.054249827 0.4982077 -0.1111334 -0.15953957 -0.28703424 0.1840379 -0.23970334 1.3129917 -0.044432156 0.20313556 -0.062688515 -0.63092196 -0.7795222 0.025189713 -0.6452713 -0.822639 0.042897083 -0.5286432 -0.50829166 -0.08504497 0.15165219 0.5729952 0.72783875 -0.3675052 0.33758566
xuất_hiện 0.39859644 -0.30890536 -0.05424682 -0.52318525 -0.54396516 0.25220278 0.1294365 0.405949 -0.5408635 -0.050183542 0.21351328 -0.106796235 -0.27440688 -0.43572947 -0.060683265 0.35294846 0.50107026 -0.2854475 0.3621497 0.2643182 -0.25600567 -0.8220396 -0.3621985 -0.07642609 -0.18579753 -0.5177054 -0.28468877 0.06037713 -0.052202698 0.10886263 -0.5869557 -0.07778115 -0.2710704 0.6813149 -0.7312137 -0.54396653 -0.1565468 -0.013689371 0.21500166 -0.2749547 0.7403914 -0.41149187 -0.6639958 0.16742441 -0.37677938 -0.14076492 -0.3711363 -0.6919887 0.080191016 0.7560586 0.5975097 0.16051877 -0.3557432 0.01339051 0.55724305 0.14460468 -0.102163225 -0.22756308 0.036731537 -0.5065122 0.69336545 -0.2109603 -0.12353312 0.46970415 0.18178147 0.90885645 0.4248695 0.79767996 0.037773468 -0.0026074878 -0.15897585 0.30238312 -0.8885164 -0.08719432 0.5186304 0.4688092 -0.25991333 -0.75354993 0.40488777 0.44397363 0.03828448 -0.24363957 -0.26839596 0.2381495 -0.50292593 0.28471825 -0.35733682 0.44558534 -0.75451165 -0.36514047 0.44554493 -0.064514555 -0.5051215 -0.5329919 0.20778579 0.12072161 0.100436196 0.833361 -0.0077267555 0.48062795
khí_tượng 0.77223676 -0.2388604 -0.42946273 -0.22156999 -0.21466841 -0.59530294 -0.05425637 -0.27802372 0.07899631 -0.33270806 -0.16730344 -0.5854507 0.55494666 0.34994006 -0.3761818 0.0969086 0.117522545 0.1760729 -0.2397132 0.20096217 0.23293246 -0.10202916 -0.36847854 -0.48246688 0.4519855 0.14090407 0.17142758 0.04160307 0.7862998 0.702097 -0.048537143 0.38423073 -0.2348968 0.38499144 0.13819529 -0.77035785 0.35225603 0.86685234 -0.09712399 0.081178494 0.44806674 0.08451073 -0.5894475 3.663655e-05 0.046012364 0.0936432 0.67956513 -0.043894224 0.20027103 0.3157035 0.20262563 0.23740311 0.41159284 -0.61543065 -0.15994789 0.28329775 -0.2555628 -0.013484743 0.51664895 -0.3103725 -0.33339587 0.11760097 -0.6909739 0.5907717 -0.35983306 0.67466 0.20684353 0.5818943 0.01976263 -0.1667196 0.14163944 -0.92829543 0.13054252 -0.023713212 0.38235041 0.09720446 -0.21682864 0.12937449 0.15977186 -0.10120712 -0.22525495 -0.29562357 -0.0941394 -0.47452295 0.3544565 -0.12829675 -0.06813576 0.29256603 0.2771512 0.19161732 0.3376147 -0.6481982 0.21519598 0.43060252 0.22090873 0.50249195 -0.1725626 0.31048006 0.32762334 -0.6265943
thời_tiết 0.95888174 -0.6649229 -0.80703 -0.645662 -0.0997797 -0.9192168 -0.22014816 0.28452116 -0.15609516 -0.39604324 0.035964247 -0.2398012 0.50631744 0.08258534 -0.38254422 0.0834672 0.34023696 0.23801333 -0.40257373 0.119097956 0.37086487 -0.3747126 0.20127389 -0.4695638 0.21357758 0.6768007 0.2830123 -0.17500092 1.093134 0.6410807 -0.17716677 -0.29050088 -0.32797092 0.5235531 -0.32346803 -0.6790612 0.14077456 0.7080255 0.17030896 0.19844693 0.6473758 0.29557106 -0.6509419 0.25764838 0.32489946 0.42844483 0.77046627 -0.36603266 0.31027776 0.16782609 0.018876694 0.20381716 0.56243443 0.10910143 -0.15116575 0.36923876 -0.57242996 0.13281256 0.4998822 0.34764016 -0.17758879 -0.055400472 -0.7174411 0.9944918 -0.081555456 1.0767378 0.41989806 0.089698054 -0.08804564 0.00753012 0.16388127 -0.93979836 0.13341245 -0.19736786 0.47950688 0.3224125 -0.44365886 0.046626076 0.2525162 -0.14752682 -0.13029635 -0.552847 0.011162273 -0.97361475 0.674005 -0.11509959 0.05946482 0.119827814 -0.012102548 0.7804621 -0.13314645 -0.330485 0.5064742 0.18156546 0.088958785 -0.07634098 0.22019109 0.41970524 0.24251676 -0.60126114
và 0.2367641 0.051872328 -0.307184 0.067172505 -0.65370315 -0.20892482 0.13414888 -0.5766401 0.5096686 -0.031112002 0.13148783 -0.12652083 0.4047706 -0.16000506 0.12591152 0.22254342 0.42404374 0.4085866 0.47469375 0.0038303435 -0.15464334 -0.3313046 -0.22305137 -0.021553975 0.28081256 -0.9687361 0.23949827 0.3484986 1.0680354 0.41812804 -1.0550513 -0.030080743 -0.38891262 -0.16451202 -0.2315316 -8.044671e-06 -0.62123847 -0.46311224 -0.5767354 -0.13919297 0.15344012 0.95221555 -0.9648755 0.4728646 0.50408477 0.28669646 -0.045061313 -0.458325 -0.23239185 0.0010529166 0.19815934 0.48558792 -0.20724793 0.6204276 -0.24470778 -0.0642419 0.39548078 -0.4647971 0.13092265 0.22015922 0.5262537 -0.20060591 -0.22753347 -0.38884503 -0.11151284 0.31142506 -0.6429042 -0.29385698 0.3607514 -0.69279665 -0.10718131 -0.56060106 0.20553324 0.33206806 0.37683636 -0.21758272 0.45614454 0.26264355 0.12852344 0.29625994 -0.027732728 -0.48222622 0.2381812 0.053662475 -0.55396557 -0.14996898 0.022167148 0.41422233 -0.5136156 -0.1970815 0.062939614 -0.3362377 0.5249309 -0.21849342 -0.76042974 0.57217807 0.19936919 0.16380347 -0.10975952 -0.72496384
khí_hậu 0.8753545 -0.46512327 -0.66025555 -0.38950104 -0.0519117 -0.3842128 -0.4418911 0.53714395 0.0008530191 0.26072085 0.08092695 -0.18435031 0.43292725 0.285142 -0.22095117 0.123411626 0.3970943 0.3618232 0.46738744 0.08569665 0.40817204 -0.5131979 0.005157564 -0.43965563 0.20898315 0.6228682 -0.20688559 0.33525905 0.4023019 0.76015866 -0.03461016 0.19028266 -0.05876195 0.6302539 -0.04476774 -0.4544425 0.35905233 0.6483771 -0.055452522 0.23109137 0.52302474 0.41995406 -0.9986435 0.30268642 0.2131025 -0.074602224 0.34037 0.012438878 0.30446813 -0.053985577 0.40510345 0.050064784 0.44894457 -0.06586446 -0.22471507 -0.06022003 -0.11623207 -0.115631856 0.41423094 0.16000392 -0.46530116 0.30282384 0.019439764 0.54749143 -0.061516173 0.36228853 0.30374798 0.28239968 0.017023282 -0.34932253 0.33188125 -0.96955246 -0.1978811 0.001996368 0.13365951 0.20487878 -0.3054158 -0.123845175 0.009952484 0.52299 -0.24912985 -0.3903754 -0.12160778 -0.86007804 0.38206792 0.12373542 0.1908518 0.29748154 0.034652647 1.1051282 -0.045629982 -0.56425744 0.016382305 -0.30614763 0.13348152 0.022215692 0.30872148 0.06282888 0.024043445 -0.44999638
gì 0.27374774 0.41072708 -0.5810638 -0.5130043 0.13301253 -0.5874282 0.4597073 0.12164691 0.4397562 -0.22341873 0.15704958 -0.0352704 0.20629433 0.42177635 -0.76754254 -0.26470098 -0.54184103 0.47047335 0.3791444 0.07364394 -0.40032497 -0.3874902 0.67191875 -0.4508957 0.6168296 -0.16939701 -0.64270437 -0.42261326 0.23975325 0.27319604 -0.060415246 -0.3256122 -0.11334832 0.13374689 -0.47356758 0.1539433 0.2703493 0.29346 -0.10011551 0.1668898 0.63932 0.77844 -0.19985989 0.47904328 0.3541993 0.003983091 0.15538126 -0.3647028 0.61038625 -0.118548945 -0.027182892 0.21375029 -0.24375434 0.9498411 -0.9583236 -0.3926728 -0.9626855 0.52281535 -0.25823423 -0.028174369 -0.1356218 0.929809 0.4681117 0.027557867 0.09371891 0.22977152 -0.020515868 -1.2094316 -0.13502438 0.02055223 0.0030460237 -0.73552436 -0.9596533 -0.437742 -0.81561273 0.021170959 0.80436593 -0.38750893 0.75098354 0.9719125 -0.6805465 -0.15942974 0.25724205 -0.7474472 0.64448947 -0.25890544 -0.07652493 -0.13069974 -0.31327638 0.32969046 0.3603668 0.021827642 -0.27830094 -0.7623548 -0.8475485 0.016839705 -0.9373156 0.5652453 0.7482545 -0.19748211
khác 0.72726667 0.47972366 -0.56489867 -0.3648619 -0.2048878 -0.2598077 -0.40177387 0.1076224 -0.39503625 -0.086280525 -0.37383375 1.2427452 0.031473283 0.25126094 0.097546175 0.386149 0.8783698 0.9971749 -0.21513607 0.34210426 0.3777908 -0.717096 -0.11824986 0.8031029 0.25655377 -0.5952744 0.33470133 -0.083567016 0.5003088 -0.29273292 0.3506447 -0.08559734 0.32837087 0.35971507 -0.1348071 0.37214398 -0.63318443 0.121983044 -0.095516324 0.049965397 0.5869985 -0.07492172 0.18161508 0.16109724 -0.072119884 -0.08452609 0.051089693 -0.6035298 -0.04382636 0.089894086 0.64683527 -0.8784196 -0.29109812 0.055635404 -1.036078 -0.36586705 -0.67564636 0.31252173 -0.115379915 -0.5438794 -0.7234322 0.41200373 0.082264274 -0.023152664 0.1712723 1.1254797 0.14840308 0.4029856 0.3376841 -0.9824704 0.31553286 0.23062055 -0.48508027 -0.2847035 -0.30923772 0.15988432 -0.40281084 0.30875373 1.5461341 0.42273918 -0.45823726 0.23942481 0.93667644 -0.7046151 0.05831709 0.0890756 -0.42690632 -0.5760138 0.20234549 0.8001365 0.028777258 -0.35474387 -0.34632066 -0.24878168 -0.09296651 -0.6559145 -0.08794434 -0.6440757 0.5684165 0.29092914
nhau -0.033850547 0.77036697 -0.79968923 0.091368034 -0.10397698 0.7990055 0.033519186 0.13190319 0.011168957 -0.1705418 -0.34742758 0.55742735 0.48840532 0.7018754 -0.5437708 0.32914263 1.177785 0.41497946 -0.16689733 0.27407122 0.7152481 -0.6728215 -0.1993673 0.08501008 0.49482027 -0.56004333 -0.08352047 0.35436577 0.121050216 0.060861647 -0.06466503 0.05632255 -0.01846782 0.54645246 -0.08093349 0.43504053 -0.14338619 -0.030735252 -0.7071628 -0.022713164 0.5933832 0.2895219 -0.32485175 0.34745628 0.5614221 0.04028892 -0.019794064 -0.42030483 0.36722463 -0.110896096 0.44250974 -0.6309125 -0.28001276 0.035876226 -0.42288536 -0.97673535 -0.66154283 0.17994945 -0.030595612 0.3003242 -0.5370659 0.12660518 0.6792132 -0.38100955 0.44261202 0.029638972 0.64258134 0.40935487 -0.112370916 -0.9029817 0.61619294 -0.028190462 -1.0271153 -0.17518221 0.083782256 0.39785072 -0.27958056 0.08365162 0.53355384 0.940753 -0.5960135 -0.23736069 0.4341683 -0.94626516 0.1756027 -0.20939995 -0.8145042 0.012177077 -0.2902504 0.68960786 -0.03181138 -0.031575445 -0.31125268 -0.18028203 -0.292364 0.16196398 -0.204041 -0.93226093 0.6811888 0.49861878
trước 0.2540518 0.5272667 0.3447006 0.2080111 -0.7042644 -0.8309237 -0.54739326 -0.96264493 0.8760056 -0.3990281 -0.09409265 -0.5532664 0.4112417 0.62025017 -0.2657973 -0.11407709 0.49306488 -0.10588804 -0.4229603 -0.26173124 0.5586925 -0.078980096 -0.64969194 0.07537216 0.369531 -1.4556986 -0.356398 0.38898408 0.4938802 0.36097166 -0.030855957 0.3451815 -0.39511755 0.14162342 0.6585797 -0.38856843 0.18825826 1.0197126 0.33309507 -0.36438856 -0.098728895 0.29003134 -0.016112318 0.017506197 -0.030924002 0.024192337 -0.60160285 -0.23499393 0.48717508 0.64740753 -0.44134948 -0.22243087 0.28664997 -0.7506218 0.0011123709 0.08489481 -0.62890625 -0.14937381 0.63938713 -0.78958255 -0.11844366 -0.13503145 0.1968078 0.9873766 -0.32279134 0.3394774 0.1725264 0.9819816 -0.106122606 -0.28448915 -0.098727904 -0.62142456 -0.8567906 -0.16474268 -0.30300218 -0.052096717 0.2542531 0.5249221 0.79317355 -0.61012924 0.30933812 -0.046801712 1.5563748 -0.06170216 0.50983006 -0.008181184 -0.46646348 -0.50326437 0.31341526 0.1757303 -0.2770618 -0.520091 -0.7560333 0.109971516 -0.007541219 0.16372912 1.2208287 -0.32133332 0.0029163011 -0.24772826
khi -0.11926497 0.30107927 0.16790998 0.745355 0.14158227 -0.6684994 0.364454 0.21858655 0.4473126 0.089467205 -0.6049874 0.2686672 -0.10658259 -0.11889874 0.03703604 0.5242853 -0.40667596 -0.11368187 0.21746463 -0.79657257 0.2529771 -0.044127222 -0.28589335 -0.24558055 0.3643511 -0.33107695 -0.08400458 -0.21810207 0.6104706 0.5064403 -0.109896 0.14130095 0.30702624 -0.20208925 0.22900236 0.08127222 0.1717105 0.7150152 0.5347124 0.27078187 -0.15771648 0.38029835 -0.37263805 0.34176314 -0.08615 -0.6698246 -0.49652603 -0.4199225 -0.041404773 -0.7206752 -0.2900194 0.27327648 -0.2711329 -1.1081127 -0.4525758 0.0073070447 -0.564916 -0.62885123 0.4137893 -0.17073679 -0.43087935 0.30896312 -0.79208404 0.35976422 -0.95225626 0.13427034 -0.05362092 -0.12658286 -0.56657743 -0.34781808 0.64898515 -0.7396643 -0.19004302 -0.74949116 -0.45950463 0.25956705 -0.029940972 -0.33087587 0.5024491 0.17027143 0.19821158 -0.7620823 -0.33492547 -0.5187475 -0.6003522 0.24374834 -0.39300904 -0.2290712 0.049160644 0.13077864 0.6875589 -0.5434233 -0.5478522 0.5399088 -0.037996024 0.45317364 0.22365244 -0.27959496 -0.058440775 0.4812029
trời 0.67197317 -0.21960382 -0.29192367 0.46650723 -0.048035197 0.047850415 0.38298678 -0.5277378 -0.48834172 -0.596719 0.188568 -0.5715269 0.3946389 0.09278451 0.1498389 0.36311495 0.29394716 0.56118566 -0.18377373 -0.36426622 0.6604403 -0.49193403 -0.1602615 0.2560159 0.80638915 0.24217166 -0.5429704 0.0639916 0.58956414 0.1433984 -0.8001515 0.06381848 -0.59271425 0.7780675 -0.31462938 -0.20860112 0.24363135 0.4367063 0.21133344 0.667781 0.9515608 -0.2865284 0.014900548 -0.92029124 -0.985942 0.07735927 -0.3175044 -0.6828736 -0.34627974 0.63672864 0.8126964 -0.35956752 -0.31650177 0.018739685 0.31545267 -0.20325392 -0.73944986 0.43665662 -0.54023427 -0.6142495 -0.73339826 -0.1998756 0.86010885 -0.2937413 0.2784861 0.72612965 -0.6667322 0.27525067 -0.15016383 -0.24646606 0.12115779 -0.37446597 -0.1731821 -0.27478033 0.53575295 -0.26125148 0.2240288 -0.09605642 0.5090483 0.22451194 -0.06229234 0.44422528 0.8097919 0.007890211 -0.14398636 -0.86986864 -0.545079 -0.14449112 0.02034351 -0.4712233 -0.52475685 0.5010016 -0.5628804 -0.8041294 0.53739077 0.030588409 0.27143988 0.69928205 -0.008191581 0.24404328
rất 0.05789788 -0.12627032 -0.6110006 -0.7018236 -0.017010748 0.10428584 0.46903506 -0.18984222 -0.68738353 -0.5268589 -0.1695368 0.560527 0.071098395 0.2751543 0.30845606 0.6823129 0.17027004 0.48653612 -0.63177985 -0.5382166 0.12535734 0.15207496 0.02528639 0.19835994 0.58530784 -0.1367575 -0.5222282 0.03911491 1.1799312 0.05474592 -0.037468303 -0.12569 -0.17021169 0.53422266 -0.47677964 0.118326895 -1.1671478 0.38665304 -0.09599127 0.023246463 0.32398263 1.2191157 0.3493945 -0.5135831 0.948015 0.6271163 -0.033132933 -0.570165 -0.19266619 0.106519416 0.43083408 -0.48309642 -0.8575697 0.28350365 0.8471419 -0.92708963 -0.41313586 -0.1373255 0.29821706 0.23105824 -0.35437983 -0.20858349 -0.32155037 0.41836432 0.80467737 -0.45202765 0.005588594 0.40034068 -0.86010844 -0.7083817 0.47342682 0.46989197 -0.3723894 0.4823028 0.24020135 -0.18074228 0.04353096 -0.28335482 0.40219223 0.0450394 0.09015071 -1.0457942 0.52064204 0.17204289 -0.33217677 -0.0368517 -0.9864988 -1.12375 0.018212665 -0.61975694 -0.61719877 -0.29617277 -1.0419649 0.36991057 0.25328055 0.6342535 -0.31102353 0.82857984 -0.12243559 1.2428544
làm 1.052868 -0.55658233 0.043130625 0.890977 -0.17261128 0.3876624 -0.07491734 -0.24088538 -0.4843896 0.03384809 0.17093751 -0.47757706 0.12614526 -0.21934949 0.33534768 -0.5178064 -0.18835115 -0.23425415 -0.08581158 0.12774454 -0.38503796 0.58687365 -0.11934724 -0.31011206 0.19676659 -0.106252395 0.70447093 -1.1125711 0.28459862 0.39379948 -0.6268539 -0.011918357 0.97838545 0.5950782 -0.30355817 -0.14748743 0.035161562 0.8489218 -0.07041771 -0.84867936 0.8299972 -0.21630219 -0.47693354 0.19862938 -0.14877667 0.5935869 -0.14156617 -0.8439584 0.027887842 -0.44884098 0.13918945 0.10987689 -0.34404355 -0.4922824 -0.32865342 0.3950362 -0.15814434 0.023005398 0.014722336 -0.2133154 0.061874874 -0.04935968 -0.32728648 0.81639934 -0.55508417 0.84126455 0.29840347 -0.39620265 0.28894424 -0.6861916 0.79123485 -1.251333 -0.22557154 0.074804865 -0.03159824 0.3535216 -0.05514762 -0.7959005 -0.37764615 0.33831993 -0.32133493 -0.22920595 0.43531346 0.47309712 0.23177224 0.12571071 -0.30538267 0.1830988 0.20456691 -0.49890655 0.2285875 0.119766004 -0.63717884 0.36638606 0.062297992 0.43280837 -0.45534757 0.63029474 0.46025056 -0.54845613
các -0.121265225 0.07704728 -0.8877616 -0.3676145 -1.3846511 0.60345596 0.27198532 -0.05139069 0.6627848 -0.50687927 0.0016052732 0.06343724 0.22051191 -0.23978761 0.16351639 0.049820982 0.23073532 0.055126857 -0.1361726 0.37546074 -0.16911152 0.5884491 -0.61494213 0.7459055 -0.51849926 -0.8571081 0.29168278 -0.66202426 0.49263874 0.2305736 -0.03322294 -0.76992834 -0.4137915 0.99989575 0.2845427 -0.106919445 0.51741207 0.39995655 -0.061973225 0.29778546 -0.44003004 0.1571647 -0.6734224 -0.07108384 -0.614522 0.7496593 0.35200182 -0.4223544 0.3308197 0.21389918 -0.27967316 -0.09872867 -0.5263399 0.30085233 -0.4556313 -0.10218692 -0.20693634 0.56567615 0.12607108 -0.18403822 0.29271978 0.1873939 0.0030746446 0.1382581 0.31475088 1.1397606 -0.3505483 0.09865701 -0.466502 -0.5104162 -0.22762439 -0.13690892 -0.20035224 -0.24012177 -0.4614354 -0.09584097 -0.87252927 -0.59246325 -0.029736755 0.12638716 -0.039807994 0.17002587 0.02809554 -0.25685793 0.02759411 -0.2698829 0.2856626 -0.36650512 0.320989 0.3080902 0.4131745 0.06306911 -0.20504063 0.54649925 -0.032289073 0.21897045 -0.27809033 0.5572202 -0.16493705 0.13305472
ra -0.20795134 0.42515558 0.078406446 -0.5385524 -1.0570931 0.67364985 -0.12550057 0.5246801 -0.47097474 -0.71710247 0.23843828 -0.72363627 -0.0862544 0.30845714 0.21402006 0.83853453 0.19140437 0.75076413 -1.1644956 0.23595506 0.3560025 -0.6283725 -1.0114942 -0.85287625 -0.10223826 0.34822562 -0.106530145 -0.36773258 0.76512676 -0.059751984 -0.795148 0.3090102 1.0905943 0.10256219 0.55280024 -0.5253033 -0.55922216 -0.74572176 -0.02276091 -0.49881995 0.40095744 0.030055845 0.02862928 0.39368993 0.05060591 -0.20067093 -0.1399265 -0.045173228 0.6787446 0.8016026 0.85089284 -0.015927706 -0.339394 -0.3520191 -0.3001552 -0.36058125 0.18293001 -0.39465982 0.07990245 0.77023965 -0.5095176 0.09855409 -0.43047872 0.23590475 -0.21309926 0.5721108 0.80516845 0.77841854 0.46861234 -0.2517164 0.2769301 -0.012172738 0.15627134 -0.28797635 -0.20272654 -0.68069565 -0.016214931 -0.5395938 0.3100359 -0.1758865 0.746866 -0.76370674 -0.65136576 -0.662259 -0.16815303 -0.120205864 -0.405281 0.4072832 0.44462135 -0.01863258 0.38326335 -0.47303817 -0.97839934 -0.4028626 0.50717807 0.08118923 -0.28600267 -0.012982748 -0.032173354 -0.69564116
nói 0.7375749 0.45491222 -0.706286 -0.13095228 -0.119876504 0.5809526 0.58648527 -0.4102279 -0.17398645 0.6321587 -0.33945242 -0.20415936 0.16871385 -0.16937439 -0.6175423 0.69368196 -0.681674 0.5737351 0.41829967 0.23595369 0.10939045 0.2352765 -0.08877065 0.041616827 0.57693326 -0.041233778 -0.7256394 0.17227034 0.74538326 -0.18984589 0.31352863 0.1009414 0.010136238 0.4889252 -0.0653741 -0.26894322 0.024908027 0.0300211 -0.5613446 -0.415476 1.3167237 0.19317244 -0.05089056 0.034254268 -0.10009374 0.044199914 -0.10481002 -0.47629282 0.44073126 -0.77089536 -0.25427085 0.08720474 -0.8601519 -0.5984755 0.27001342 -0.23446438 0.14100629 -0.8978349 -0.025797259 -0.1628286 0.45521963 0.7098017 0.20426373 -0.2372772 0.0020599407 0.33439976 0.16583978 0.27731025 0.31710154 0.28814396 -0.27050585 -0.4386011 -0.66279197 -0.39239684 -0.11144253 0.43142515 -0.24336575 -0.28400126 -0.11794072 0.49968177 -0.27825183 0.09833834 -0.120929055 -0.48921907 -0.36349598 0.42697182 0.2427094 -0.41694036 -0.76038027 -0.59917885 0.35095003 -0.5916712 -0.37265044 0.022993637 -0.07076159 0.13841039 -0.082716614 0.58110243 -0.42999396 -0.16206883
cũng 1.147961 -0.44269642 -0.043423515 -0.07152104 -0.8555425 -0.33012992 -0.33552253 0.012445069 -0.38249755 0.21187949 -0.43565452 -0.6824252 0.7683953 0.1911411 -0.02168105 -0.30582106 -0.719595 0.5650669 0.061017077 0.21828642 -0.26394367 0.5168177 -0.2445865 -0.508859 0.7565976 0.38866568 0.16032694 -0.21030563 1.0679349 0.17366242 0.004636816 0.6683288 -0.029577348 0.41472417 -0.39663997 -0.31844702 -0.028417228 0.6963695 -0.41173926 0.9045554 0.054737516 -0.70716333 0.09331337 0.3077812 0.26094368 0.92515737 0.3137297 -0.4785072 -0.21536945 0.14798337 -0.15921783 -0.6537894 -0.03715012 -0.41692778 0.31721324 -0.122937396 -0.3702731 -0.39926946 0.52876186 -0.6862264 0.74236345 0.6235773 0.17228563 0.098843515 -0.63079363 0.7110393 0.6663923 0.6455502 0.18913352 -0.15693885 -0.16715066 0.15764055 -0.6686398 0.73866606 0.6931099 0.17138022 -0.08400456 0.2666225 0.37588271 0.30500713 -0.09736146 0.044546243 -0.6496069 -0.6655063 0.09719089 0.45114028 -0.18970051 -0.4612628 -0.34435213 -0.34056622 0.85041803 0.27449927 0.60734326 -0.033977985 0.2661448 0.30073828 -0.51040846 1.0250993 -0.751276 -0.6573709
một -0.29447043 0.1590969 -0.12894414 0.19598123 -0.6467939 0.31774095 0.34616596 -0.126604 -0.4775915 0.37038615 0.1463463 0.2910186 0.2243368 -0.7085688 -0.22533137 0.59033185 0.21049523 -0.23139682 -0.05658571 -0.049974296 0.61212426 -1.2613516 0.6697494 0.5054556 0.3697705 -0.548565 0.71640134 -0.08493431 1.0537535 -0.45231602 -1.0509452 -0.4556332 0.4390532 0.36057213 -0.5149666 0.011508253 -0.45103595 -0.339467 -0.588808 -0.5475579 1.0001124 -0.54703957 0.41163224 -0.3269849 0.4379121 -0.12680833 0.5055043 -0.95896924 0.25836283 -0.46796826 -0.08330746 -0.54693276 -0.59815466 -0.41219538 0.5339131 -0.3247183 -1.2054232 -0.36866194 0.21516147 -0.43823364 -0.12795542 -0.19507785 0.7466124 -0.6190528 -0.3629935 0.85265183 0.32654136 -0.23901457 0.17912062 0.38479954 -0.75491506 -0.1926163 -1.017807 -0.18060002 0.26162654 0.39012492 0.70922995 -0.025748089 -0.024924597 0.6860392 0.83966815 -0.3150809 0.56460977 -0.200633 0.06752171 0.42129925 -0.4357143 0.5738191 -0.63805336 -0.14622934 0.27059954 0.15287608 -0.6286579 -0.7686037 -0.97584134 0.29753587 0.67234623 -0.6053503 0.53853756 0.42646027
nguồn 0.36246622 0.09232694 0.07771233 -0.21101055 -0.8774203 -0.41449046 -0.34646904 -0.3134903 -0.16665612 -0.27681747 0.21663703 -0.7775524 0.16483192 -0.10342244 -0.9102631 -0.049777936 0.39892572 0.478632 0.023553923 0.09194405 0.081150144 0.14292341 -0.126102 -0.11848246 0.14649974 0.8220544 -0.16317096 -0.22492655 0.49746248 -0.13309957 -0.60582644 -0.5629559 -0.24754761 0.77752125 -0.06364786 -0.2589505 -0.13392766 0.06052731 0.12002815 0.15021563 0.70944244 -0.96864134 0.36489412 -0.4871742 0.10351559 1.1719292 0.33926415 -0.23517403 0.29126808 0.18587089 0.8073679 -0.8407924 0.105069265 0.47994012 0.6988428 0.25153708 -1.1690944 -0.4910045 0.7799194 -0.3140538 -0.3558825 0.37071574 0.09315962 0.0813955 -0.39658064 0.68813616 -0.011882557 0.47088394 -0.42568 -0.8677819 -0.5154644 -0.31781 -0.3887912 0.090454176 -0.399138 0.164978 -0.12613101 0.74667436 0.17706527 0.08054484 -0.073486425 0.4595625 0.12956649 -0.15603131 -0.6798875 -0.362797 -0.3549067 0.35512957 -0.7714289 0.07082348 0.47575587 0.0036388785 -0.10687686 0.1465774 -0.78225654 0.33955488 -0.29421017 0.2802806 0.14500618 -0.16662471
năng_lượng 0.6289107 0.24865378 -0.2825989 -0.11346084 -0.86654705 -0.30239776 0.5891892 0.22197537 -0.19971845 -0.9589586 0.5143973 -0.73580515 0.4419449 0.53887963 0.46989554 0.3401931 0.15272856 -0.020915847 -0.3958854 -0.3286173 -0.22120418 -0.92192036 -0.09627456 0.061289817 0.079669796 0.5194499 -0.12007406 0.17843011 0.1572254 0.019802308 -0.9470589 -0.17863065 -0.168059 0.2409557 -0.039820343 0.06957753 -0.3556946 0.14924973 -0.041898977 -0.002596704 0.24949569 -0.5593081 -0.32538065 -0.57302827 0.03551016 0.8191027 0.17891817 -0.09335394 0.23808587 0.22696243 0.60026306 -0.29343686 -0.4290716 1.0488156 0.22085035 -0.43437114 -0.7774552 -0.48523062 0.35375053 0.28383142 -0.40022156 0.31894067 0.16670014 -0.38893217 -0.3675372 0.4988047 0.43571863 0.31320158 -1.0209763 -1.2566515 0.037975013 -0.6352277 -0.096368894 0.18390998 -0.35562786 0.50091356 -0.08349554 -0.101614766 -0.16141868 -0.049182698 -0.61058193 -0.06341976 0.10313298 0.140975 -0.22027105 0.056256488 -1.1267089 0.18112266 -0.41865218 0.20257507 0.06407622 -0.023146767 -0.20684488 0.26250115 -0.19115594 0.5970356 -0.9803591 -0.08974321 -0.29236296 -0.28195894
núi 0.92099154 -0.2720592 -0.4142908 0.16881627 0.4541849 0.11375289 0.26014772 -0.1462098 -0.17652775 -0.7457382 0.29762298 -0.50687486 0.33658072 -0.3773789 -0.06228975 -0.238299 0.54785913 -0.09768543 -0.7962013 -0.06652734 0.09919619 0.023824073 -0.9098951 -0.05607194 0.9335118 -0.15652071 0.722481 -0.41458115 0.9098793 0.22497113 -0.5830918 -0.23405018 1.0290611 0.44238567 -0.13978113 -0.45128492 -0.3011691 0.08674581 0.29906607 -0.009445883 0.45143458 -0.02811915 0.17691162 -0.04510341 -0.59916455 -0.24030535 0.0104733305 -0.90388155 -0.028634747 0.19974746 -0.52637905 -0.0382966 0.88511163 -0.08302668 0.74543244 0.7733957 -0.66155756 -0.15509103 0.3936732 0.3990687 0.091247916 -0.16078636 -0.4941904 1.2298625 0.030995367 0.617035 0.22930636 0.060288284 -0.18790297 0.07583128 0.64699 0.06415234 0.01702997 0.58965045 0.13958123 1.0510972 -0.7552376 -0.14893378 0.63496995 -0.24877062 0.12237019 -0.439336 0.06445313 0.21564594 -0.44127816 -0.7169494 -1.3186302 -0.102818936 -0.6166982 0.4762091 -0.24633643 -0.43218052 0.21883124 -0.49337777 0.3040655 -0.47973183 0.10537502 0.8387306 0.30577165 0.0437712
cao 0.29947892 -0.52220464 -0.9375417 -0.17268047 0.53697526 0.46254173 0.27791265 -0.5526437 0.2397329 -0.28921032 0.12902826 0.010259611 0.8739704 -0.24456829 -0.44860408 -0.35708022 -0.11423173 0.88204086 -0.2886215 0.56431305 0.5175173 0.5086837 -0.19462429 -0.13600737 1.114226 -0.32882774 -0.13669407 -0.6089934 0.6541284 -0.13247855 -0.57901645 -0.134419 -0.000105623716 0.005016579 -0.56166357 -0.07407297 -0.010755551 0.3574995 -0.62917656 0.24504268 0.09065278 -0.52889276 -0.09630811 -0.51972276 -0.71574396 -0.2739092 0.16935508 -1.4818041 -0.17797002 0.20698035 -0.42777166 -0.007992756 -0.6183158 -0.39020714 1.3036467 -0.37368402 -0.8749564 -0.12129866 -0.40126976 0.3556545 0.18770953 -0.17654482 0.21108007 0.47263694 0.13875857 2.1499057 -0.036806244 -0.016858438 -0.48590067 0.37897515 0.09513337 0.17169894 -0.20608258 0.13018459 0.7617849 0.19292478 -0.09570291 -0.45142627 0.55641437 0.13767073 -0.77956694 -0.36305302 -0.15194714 0.04392896 -0.017051864 0.051994696 -0.47482067 -0.10898332 -0.0027424134 -0.03944667 -0.12100546 0.34792876 0.58684033 0.10970227 0.17853573 0.4352771 -0.91737145 0.6622262 1.006048 -0.6892613
được -0.26880553 -0.014691544 -0.009665816 -0.07196217 -0.21594253 -0.63294977 0.26968712 0.10212181 0.24566853 -0.1874132 0.106082745 0.20738328 0.39725488 0.38346863 0.6728368 0.27378005 -0.41286352 0.43253034 0.11705396 0.11759765 1.0367571 -0.36099 0.08643831 0.46170917 0.56439614 -0.49665084 0.2471128 -0.25680923 -0.10391767 0.30426955 -0.32361424 -0.123884365 0.09552142 0.07876897 0.41055396 -0.58877206 -0.34194258 0.82759565 0.12749313 0.46790153 -0.29687524 -0.069073424 -0.078756124 -0.5525389 0.2540405 0.1579301 0.6004743 -0.07396465 0.46706983 0.038319215 -0.5708913 0.39078578 -0.30311593 0.33159944 0.45836955 -0.3190946 0.47662258 -0.0915532 -0.71037704 -0.004236708 -0.30366695 -0.021481099 -0.33742648 0.7064878 -0.295798 0.3305328 -0.20944032 0.4239173 -0.040649958 -0.33080047 -0.06214927 -0.51417506 -0.4978078 -0.20423174 -0.11298342 -0.14598382 -0.0029178266 -0.4288948 -0.214368 -0.15511134 -0.140873 -0.30081475 -0.6359847 0.6635384 0.24311808 0.22802748 0.15671219 0.15806463 0.17998073 0.8491022 0.049663678 -0.60313946 0.11047103 0.025437566 -0.05522982 0.1298848 -0.4394839 0.16056065 -0.37236413 -0.11315675
hình_thành 0.29304725 0.20902485 -0.16569753 -0.8034417 -0.697372 -0.5815152 0.6478929 0.3175097 0.18861137 -1.1073259 -0.032268293 0.4767412 0.2166141 0.45184597 0.030054457 0.2073886 0.297461 0.5636843 -0.03772139 0.4252799 -0.005575095 0.012417494 -0.6567276 -0.014219342 -0.2263839 0.17835675 -0.18355098 -0.15994227 0.7289665 0.50727755 -0.26621467 -0.5179018 -0.8571625 0.07392337 0.0669427 -0.9415917 -1.2338525 -0.13314827 0.33985656 0.26381683 0.14451668 0.23938511 -0.2087795 0.28882417 -0.06260232 0.42186618 -0.09379421 -0.08038294 0.6259544 -0.4025269 0.47674492 0.40254104 -0.59324884 1.0470145 0.47216588 -0.33953488 -0.39491102 -0.5122474 -0.3337027 0.038111195 -0.022814807 -0.20920019 -0.7342891 0.68492967 -0.48785478 0.2062616 0.2503891 0.45379183 -0.068431705 -0.7560079 0.3390355 -0.40334654 -0.71031374 -0.6826182 0.16825934 0.06693449 -0.8100672 -0.17880328 0.9520942 -0.64464146 0.024530364 -0.6273442 -0.54344237 0.34073114 -0.4732337 -0.22969845 -0.23546387 -0.09912509 -0.411724 0.9917373 0.08450683 -0.76901376 0.56298107 0.15047444 0.17238559 -0.22855334 -0.37853125 0.9309022 -0.09650176 0.4135412
như_thế_nào -0.3110766 -0.28183487 0.18315308 -0.10373077 -0.13891988 -0.89362895 0.7035729 0.51492625 0.11797151 -1.1829652 0.15488237 0.12912887 0.34457675 -0.14512347 0.48215264 0.083651565 -0.1899679 0.3062411 0.10207424 0.8852733 -0.38539138 -0.027708668 -0.509948 -0.03396212 -0.1676882 0.6030396 -0.27179888 -1.0638884 0.20188047 0.4433846 -1.0339365 -0.6486611 -0.17780638 0.1591284 -0.12057544 -0.11303589 -0.49575958 0.39333504 0.06482485 0.5390759 0.539294 0.33767092 -0.34189034 0.35260844 0.3826398 0.3038757 0.393716 -0.7456018 1.1087751 -0.92539203 0.084909245 0.707356 -1.2737702 0.7109274 0.13467506 -0.13454175 -0.9280853 0.5191685 0.11886287 1.1669184 -0.35334757 0.22007278 -0.53784937 0.6506507 -0.1619395 -0.60142094 0.56665045 -0.27694756 0.5343544 0.43297213 0.09462633 -0.47219 -0.4692714 -0.41709152 -0.28526723 0.22054894 0.59271747 -0.3765707 0.42097163 0.6520035 0.06234025 -0.27842075 -0.93369436 -0.045830246 -0.13674127 -0.7167573 -1.0727184 -0.49574572 0.29408425 0.89073795 0.6543662 -0.61879164 0.27094558 -0.23811114 0.36822602 -0.1955078 -0.5603979 0.7594376 0.6235934 -0.15528855
biển 0.89025354 0.075111665 0.20672522 -0.59708047 -0.55430835 0.084789574 0.2778128 -0.28057617 0.2546203 0.010354358 0.076106526 -0.40668446 -0.38415322 -0.49797824 -0.5663964 0.64430255 0.4322627 0.035864603 0.13957605 -0.049526628 0.030830326 0.2367791 -0.26420024 0.08650886 -0.3114866 0.2983784 0.6982783 0.39139578 -0.36855775 0.37010157 0.20879784 -0.019456623 0.7178413 0.7272979 -0.2378077 -0.011308374 -0.495103 0.12931158 0.34868205 -0.19808216 0.08638763 0.17262104 -0.13287485 0.19470039 0.055954568 -0.14846796 -0.3220208 -0.15121831 0.3379946 -0.80836576 -0.3552166 0.19907711 -0.021735203 0.53976554 0.66803396 0.48118472 0.11296121 0.031920012 0.19516394 -0.1186563 -0.047594752 0.7076426 0.5452877 1.2213128 -0.032941777 0.30078438 0.53578323 -0.11744531 0.5302894 -0.27143988 0.78237104 -0.6203725 -0.4626643 0.6130729 -0.37580922 -0.101657905 -0.017586747 -0.34565756 0.42458946 0.27363265 0.5868033 -0.25683373 0.5825267 -0.1262139 0.16392809 -0.45640692 -0.40523618 0.034287892 -0.57922834 0.82900125 0.14979132 -0.31926382 -0.29845458 -0.19829828 -0.28192595 -0.2306504 -0.21750866 0.11329996 -0.22559689 -0.74518824
vùng 0.74215066 0.013259199 -0.47292876 -1.03046 -0.20124562 0.31285968 0.24610662 -0.39775473 -0.7409658 -0.51702493 0.330667 -0.4313762 0.52514356 0.3334346 -0.97878337 0.15747412 0.38813 0.039523046 -0.23449782 0.33964902 0.80241793 -0.23732851 0.27570674 0.090725794 0.101387486 -0.28245714 -0.31165102 0.31841907 0.6715217 -0.23213835 -0.5019094 0.32398626 -0.5929933 0.44150758 0.19521472 -1.4004406 -0.1372111 -0.11238133 0.18770571 0.0052577583 0.013073758 0.5482583 0.29277563 0.24913533 0.21302798 -0.04657758 -0.46866238 0.07016296 -0.0348281 0.02279688 0.45617524 0.28549278 -0.011929362 0.25303718 0.6599302 0.18421608 -0.92731893 0.2575896 0.21047106 -0.57648337 -0.12205216 -0.31456086 0.109051645 0.08366814 -0.08008431 -0.008354386 -0.7413665 0.8978358 0.1924876 0.30095387 0.45208976 -0.6644659 -0.9567447 -0.30177537 0.5652895 -0.29694784 0.11531609 0.17875215 0.56786823 -0.14817508 -0.015148026 0.1287167 0.63157654 0.049561225 0.38151935 -0.890482 -0.100354366 0.29236042 -0.17829537 0.016437601 -0.4153325 0.10465574 -0.02019525 0.12811181 0.6994487 -0.09156608 0.20296809 1.1079973 0.33348167 0.021553531
tuyết 0.5779401 0.14745264 -0.4406076 -0.025607878 -0.2585624 -0.046112366 -0.25986755 -0.38926446 0.3905796 0.37924856 -0.14098847 -0.36228198 0.4558726 -0.3376932 0.11641689 0.39314213 0.3775124 0.14073889 -0.67547894 -0.5015909 0.75196266 -0.27612448 -0.69366026 -0.4759331 -0.1526377 0.15111029 -0.6560464 0.2773467 0.5752104 0.40817732 -0.40685272 -0.1674589 -0.11877473 0.9819066 0.10534297 -0.16931932 0.12964936 0.6574622 0.21098377 -0.18306975 0.13203965 -0.27090004 -0.2702354 0.15333956 -0.6066116 -0.6826219 -0.50913745 -0.6143935 -0.29658738 -0.10014401 0.34331918 -0.19983697 -0.06683598 -0.6134385 0.2954978 -0.58355236 -0.5758319 0.20624885 0.71867526 -0.007430148 0.2025912 -0.83468443 0.7856446 0.5641072 -0.3104214 0.56811816 0.27312285 0.40636012 0.21924157 0.4189373 -0.09623266 -0.5867887 -0.42538965 -0.015090167 0.9412841 0.2804217 0.3182344 -0.2778977 0.33640826 0.24429533 0.69829965 -0.19555897 0.45987767 -0.16241232 0.29479587 0.027337328 -0.6573496 -0.39752555 0.0796863 -0.09342453 0.016125673 0.22564231 -0.9356168 -0.72875535 0.5250671 -0.08161947 0.23742214 0.56229913 -0.53064257 -0.575576
không 0.39936325 0.40454385 -0.7193904 -0.101847954 -0.29123968 -0.09330703 -0.033433832 0.36506444 -0.17200899 0.00015922928 0.06917792 0.43073136 0.28851962 0.30150467 0.08783867 0.045611206 -0.0672408 -0.34626132 0.1418613 -0.079292364 0.32108933 -0.46262905 -0.5738478 -0.25372273 0.014042598 -0.071875975 0.0632769 0.0424556 0.35350296 -0.1606239 0.5609033 -0.12425704 -0.31304777 0.31828457 0.09271714 0.289518 0.15426755 0.13170666 -0.523135 0.24639791 -0.44704965 -0.12671074 -0.1448558 0.2602808 0.5547832 -0.39291614 0.3630106 -0.2622766 0.2608991 -0.32590842 -0.31014246 -0.071897894 -0.33413377 -0.19189969 0.39365277 0.09759797 -0.11740222 0.23709658 0.11656011 -0.3164383 -0.5111314 0.014521716 -0.5003745 -0.114962116 0.30657443 -0.050056454 -0.39420626 -0.0445246 0.42443702 0.11371958 0.5674916 -0.53911775 0.0033994233 0.42182416 0.44126463 -0.13870639 -0.11016134 -0.123434156 0.38879 0.36696324 0.20447606 -0.87416065 -0.29746786 -0.38839602 0.52556604 0.24190195 0.27055436 -0.5447568 -0.32711813 0.06524892 0.3851669 -0.2947583 0.2202283 0.016499398 -0.23675086 0.26084188 -0.21534057 0.10319177 0.39590588 -0.3681895
tự 0.7411718 0.009680356 -0.15947087 0.48479447 -0.08518613 0.15690233 0.34903544 -0.12914467 0.04965093 -0.34790653 -0.4048996 0.33006465 0.004451278 0.2062996 0.11472533 0.429225 0.51342326 0.20038691 -0.35784516 0.4667072 0.3835421 0.12460525 -0.9907972 0.058994498 0.01908712 0.4502407 0.70968604 -0.53654826 0.14125146 -0.12885366 0.14303078 -0.1820371 0.22644396 0.502978 0.006031512 -0.301176 -0.27969772 0.5050023 -0.29055706 0.20927456 0.5463767 -0.15754753 -0.19363418 -0.20602906 -0.6139335 0.019574163 0.74894756 -0.7788694 -0.22680731 -0.28794712 0.16737442 -0.3016864 -0.336068 -0.47053328 -0.8276449 -0.77796775 0.35337827 -0.03965446 -0.31035656 -0.38500053 -0.14550205 0.04108662 -0.4266149 0.099591866 -0.3143622 0.6168616 0.16804293 0.524472 0.010823185 -0.8285958 0.2281875 -0.35969216 0.098162025 -0.43461013 0.039461143 0.15102388 -0.06515145 0.02243466 0.0432291 0.33193424 -0.26361153 0.08427506 -0.25595728 0.2961721 -0.4998918 -0.06642614 -0.7848549 -0.1573067 0.104518734 0.16089398 0.656186 -0.63842356 -0.07434419 -0.7283671 -0.14214972 0.029275771 -1.154708 0.82252556 -0.4700964 -0.33037803
gọi 0.6298366 0.53841585 -0.77070904 -0.7648151 -0.9217346 0.3319191 0.16963026 0.36174414 -0.036827885 -0.31058514 -0.066155635 0.016998475 0.7424229 0.1847703 -0.7096898 0.4115338 -0.023518147 -0.011376015 0.70238787 0.14410464 0.2989873 0.051667236 -0.41658133 -0.2058192 0.27595147 0.4742009 -0.61470854 -0.16440023 0.5634659 0.21579885 0.15183885 0.1271681 0.01360103 0.6436406 0.059336495 -1.0898589 -0.41881254 -0.55595905 -0.050963495 -0.33051148 0.73625034 -0.14819404 -0.12701623 0.9024941 0.53075314 0.15065724 -0.55513453 -0.34949452 0.7096396 -0.6771444 -0.21406615 0.2940562 0.23888698 0.280779 0.59927267 -0.5841684 0.2649224 -0.5577718 -1.0664507 -0.22164433 -0.0051160203 0.5942534 -0.027982699 0.18303435 -0.5008485 0.16301073 0.4082446 0.85449725 -0.62431574 -0.92723536 0.634082 -1.0693415 -0.7425035 -0.047728434 -0.06796814 -0.104310825 -0.5363849 -0.023489064 0.54202086 0.23849933 0.29163542 -0.6552393 -0.7369813 -0.2843096 -0.2626322 0.66602796 0.033659376 0.8587434 -1.1532198 0.2898187 -0.02032809 -0.63127965 -0.10034149 -0.17834145 -0.06495216 0.03545093 -0.55953366 0.2872035 -0.5988012 -0.58631384
kho 0.57311267 0.45942402 -0.6834393 0.22904877 -0.82446796 0.025188798 0.67791027 -0.14343555 0.09580917 -0.17834717 0.01310429 -0.23977548 0.4198767 0.2802829 -0.68841594 0.2343416 0.2789256 0.19273981 0.21098994 0.40089065 0.15372637 -0.26577973 -0.0024297817 0.0050896 0.59399676 0.3215666 0.1360343 -0.5305259 0.37049446 0.45720333 -0.62829196 0.12639377 0.49882784 0.044951253 -0.02415459 -0.82814455 -0.16196498 -0.07888549 -0.32809633 0.064631216 0.4144849 -0.25375903 -0.71708876 0.3026803 0.81506205 0.11773901 0.066094115 -0.12895349 0.28820884 -0.47910616 0.1669526 -0.3073053 -0.91190785 0.23882799 0.8661673 -1.0653535 0.03776592 -0.033601917 -0.39043146 -0.19051296 0.2668889 0.39794093 0.077847734 -0.37706146 -0.41564795 0.063792326 0.035172768 0.47579083 0.9930866 -1.2416775 0.13500702 -0.85246706 -0.9931042 0.25281632 0.13173072 0.002999775 0.1698411 0.29997742 -0.21910442 0.41787505 0.29372358 -0.26891094 -0.17737994 0.2764119 -0.5185329 -0.21114089 -0.44515932 0.43617508 -1.160437 0.07630379 0.3869328 -0.6911959 -0.16260533 -0.9366395 -0.58289474 0.17899224 -0.65389276 -0.19097614 -0.0043627974 -0.48060766
tài_nguyên 0.9164382 0.2680675 -0.53828025 -0.11925836 -0.7686993 0.204719 0.72197187 -0.6344458 -0.36931276 -0.87465554 -0.25044808 -0.47027633 0.20074625 0.5147964 -0.79563826 0.30292168 -0.024568921 -0.16364683 0.12556826 0.3369551 0.41953465 -0.16550522 -0.07662486 0.029863108 0.1961707 0.6258571 -0.2589654 -0.2978116 0.42505676 -0.16743778 -0.14396052 0.30328977 0.34085402 0.3089357 -0.013464045 -0.3352685 0.12810938 0.23090103 -0.6198108 -0.0626577 0.5518741 -1.0584797 0.11741292 -0.546537 -0.1102908 0.33590484 0.13757117 -0.19755805 0.39207894 0.0008055766 0.099099204 -0.22767289 -0.49856174 0.007855559 0.76908225 0.08170567 -0.542969 -0.48022702 0.024382295 -0.24627489 -0.31963792 0.3114644 0.15426461 -0.052257624 -0.3971471 0.609777 0.33778334 0.6088857 -0.4642222 -0.78158987 0.08685702 -0.50850236 -0.2566012 -0.057115 -0.0699086 0.19008128 -0.26751652 0.19978045 -0.29769704 0.074823126 -0.11126348 0.2530836 0.020422028 0.3067153 -0.1067988 0.19205882 -0.8209862 0.25242722 -0.48574162 -0.3268611 0.25623018 -0.6042149 -0.11698176 -0.14283594 -0.22419678 0.41762868 -0.85202485 0.36926928 -0.3585747 -0.58116823
xuân 0.2172569 -0.32328036 -0.21482737 -0.48632413 0.58430064 -0.179766 0.7882745 -0.0630343 0.19955666 -0.90970844 0.26958168 0.45404178 0.5908151 -0.37199646 -0.11237131 0.6681358 0.56232727 -0.33611163 -0.016076326 -0.5055005 -0.04501279 -0.6685711 -0.83476865 -0.16915947 -0.09140451 -0.77106607 -0.09805849 -0.055356003 0.0939742 0.41738224 -0.35458964 0.16359068 -0.18892984 0.046164 -0.7872307 -0.29030553 -0.40790042 0.304582 0.15007567 0.16380541 -0.07163426 -0.012283249 -0.25374877 -0.21841566 -0.31143215 -0.9677956 -0.27662182 -1.1389937 0.098696806 -0.23450238 0.009488531 0.23918562 -0.59416 -0.76893646 1.1122485 -0.20846012 -0.7087228 -0.11816791 -0.107940674 0.15925308 -0.33021548 -0.32539228 0.107338995 0.57903385 -0.09887184 1.2961292 -0.2125305 0.19348359 -1.1798992 0.049957953 0.27635124 -0.8433197 -0.8489574 -0.85834265 0.22208765 0.34293297 0.018660365 -0.6111319 0.4060973 -0.38957894 -0.43185854 -0.10399607 0.056401156 -0.6755024 0.13104007 -0.32520124 -0.6872876 0.5778355 -0.70180035 0.11499746 -0.52563024 0.24026352 0.10824089 0.007307333 0.43073037 0.7910887 0.02494319 0.094783224 0.61062443 -0.09072863
thu 0.09363489 0.04343183 -0.54228145 0.119166024 0.39281508 -0.2286672 0.11508223 0.028063102 -0.5273362 -1.0231719 0.47958213 -0.2322717 0.8480142 -0.4611028 0.05950914 0.398784 0.19863965 -0.20324878 0.3765705 -0.8381366 0.12241406 -0.39792886 -0.9745406 0.036400177 0.3702856 -0.21731527 -0.30197158 0.20126934 0.6219481 0.6731442 -0.49803737 0.51311934 -0.51619506 0.13607882 -0.57328916 0.10905626 -0.43392366 0.15986449 0.19237472 0.10809211 0.6898045 0.16364692 -0.010470809 -0.62057126 0.078005515 -0.38419127 -0.32063589 -1.0207096 0.44791833 -0.035173316 0.069102846 0.31080014 -0.5053151 -0.01294379 0.91612303 -0.25849113 -0.540167 -0.034989703 -0.59239674 -0.37282 -0.46218106 -0.044049293 0.47342715 -0.15204363 0.092274845 0.8992046 -0.18744072 0.40229648 -1.134699 -0.5663112 0.67458314 -1.0270388 -0.29538053 0.3534436 0.34211978 -0.30074567 -0.33339083 -0.2797712 0.47695154 -0.3959605 -0.34368518 -0.3222541 0.24298263 -0.16177732 -0.002374378 -0.5283943 -0.53816766 0.20468332 -0.50572187 -0.29481843 -1.0949564 0.1744669 -0.04807711 -0.086762995 0.40302983 0.86235845 0.13268685 -0.30355927 0.7532959 0.2807106
đông 0.23700604 0.26630977 -0.33284226 -0.4777767 -0.53526103 -0.5845809 -0.049170405 0.036863282 0.067535646 -0.12551096 0.34432182 -0.52056766 -0.13530068 -0.7074273 -0.036901582 0.24150996 0.07049331 0.7526432 0.62186605 -0.39323363 -0.41311365 -0.39826444 -0.59870726 0.31789282 0.7743045 -0.0442694 -0.49953726 0.44976902 0.1826993 0.26517102 0.15118678 0.26151377 -0.56089664 -0.077320114 -0.75934786 0.44100907 -0.31196845 -0.011449288 -0.278699 0.8677128 0.24157818 0.71727824 -0.17926861 -0.1427798 -0.12973596 -0.39155233 -0.5348109 -0.6331036 0.04408796 0.32690483 0.36516654 0.08337573 -0.19051914 0.81420815 0.37667686 0.17553392 -0.61050904 -0.5691593 -0.71531993 -0.17246318 -0.3140791 0.35894302 0.18178554 0.101169676 -0.27695537 0.7756936 -0.5349499 0.5612871 -0.45228943 0.29083037 0.26240987 -0.21395336 -0.56700087 -0.1292613 0.2175488 -0.34585327 0.35847956 0.14228836 0.54869235 0.0972581 -0.8115808 -1.5763941 -0.022289455 0.23995261 -0.3015771 -0.8485937 -0.58362997 -0.051500075 -0.347769 0.006924935 0.15645386 -0.104859695 -0.11097341 -0.92984366 0.18972343 0.61846113 0.27940378 0.86413246 0.58231026 0.10098939
ngày 0.073361695 -0.057833284 0.35573187 0.2890573 -0.28386948 0.44385847 0.43601972 -0.32048666 0.64206696 -0.46279874 0.5125141 -0.26696405 0.14354625 0.053540505 -0.029535176 -0.0010454422 0.84942526 0.4674161 -0.3018289 -0.18539268 -0.784096 0.2523214 0.013196184 -0.7635386 0.06121096 -0.37672022 -0.47506776 -0.04235312 0.71169406 0.06708769 -1.4481939 -0.28860822 -0.23398244 0.66355586 -0.44102055 -0.36731935 0.046693012 -0.20375045 -0.09316348 -0.0106472615 1.1742128 -0.4057132 -0.68096626 -0.047462393 -0.28438646 0.3070823 0.3174146 -0.40502903 -0.075835876 -0.12667684 0.037606794 -0.7408305 -0.42150727 -0.4246026 -0.1623796 0.14956464 -0.3804451 -0.40920356 0.44733128 0.53085643 0.035997476 0.25869977 0.58819294 -0.028851064 -0.08904059 1.0324934 0.15121026 0.37246612 0.9140256 0.20895177 -0.25075457 -0.75084746 -0.80135256 0.06573218 -0.22965755 -0.35519353 0.25645316 -0.41347495 0.44941625 0.26453885 0.025463302 -0.034149818 0.05351031 -0.3966694 0.030378813 0.4186886 -0.33779237 -0.17746796 0.45682922 0.008110308 0.63216513 0.15884727 0.10487246 0.515947 -0.42645743 0.34764946 -0.17376141 0.6248689 0.17902918 -0.86654633
không_khí -0.4737859 0.29212865 0.4606182 -0.2737296 -0.6029582 0.13861589 0.47132877 0.18298732 0.55957294 -0.6788839 1.5175426 -0.473317 0.4083493 0.08458216 -0.3733125 0.4455538 -0.02355281 -0.16156274 0.06719497 -0.27639255 -0.6476011 0.15198024 -0.3869838 0.049878765 0.23811507 0.30590487 -0.36620668 -0.02007943 0.9233545 0.3518762 -1.6686907 -0.0028696642 0.0159167 0.73164445 0.077795275 -0.33019656 -0.22775574 -0.17821904 0.33600393 0.62028944 0.6432481 -0.47795436 -0.3458568 0.16059706 -0.105596565 0.2953748 0.21251567 -0.48583844 -0.34174472 -0.46360013 -0.23673698 -0.069234595 -0.28380758 0.38108054 -0.21366759 0.26788685 -0.6493722 -0.2855883 -0.35826415 -0.09474727 0.12994826 0.30707237 0.5623136 -0.10794955 -0.64238775 1.0427655 -0.31787366 0.81949484 0.16957363 -0.14762129 0.05542999 -1.0658635 -0.8374411 0.16851117 -0.35195783 -0.6706115 0.10520164 -0.26068017 0.4352846 0.68538094 0.18324676 0.1253618 -0.17572856 0.10757026 -0.043878924 -0.32254484 0.01470613 -0.04543478 0.79729867 0.9663507 0.71359426 -0.69512695 0.23141204 0.047118876 0.3058253 0.623205 0.50451756 0.43343076 -0.63896614 0.06484029
nhất 0.73197377 0.7085347 -0.44469717 0.043782912 -0.2733454 0.18736343 1.1296015 -0.12566851 -0.20475149 -0.40699098 -0.034131516 -0.6037907 -0.43302387 0.23053603 -0.55626154 0.7414861 -0.68935084 1.0353726 0.33507216 0.69392097 1.2427773 0.14039294 0.2700317 -0.16321091 0.57950836 0.6193254 -0.80276436 0.06642913 -0.14435092 -0.102245934 -0.7396364 -0.50622755 -0.68368614 -0.6325445 -0.21897772 -0.25454915 -0.1642993 -0.26745406 -0.42290482 0.4843752 0.064692356 -0.44549236 0.1980904 -0.8532339 -0.090325266 -0.5437192 -0.7064143 -0.6066496 0.30142924 -0.658347 0.13118277 -0.9904515 -0.33703455 0.61336344 0.011871006 0.3891605 -0.5468386 -0.6558444 0.3253001 0.5366154 -0.56121016 -0.5768359 -0.5698279 0.02267091 -0.10957195 0.86041355 -0.0154579785 -0.4005376 -0.28063655 0.040699776 0.69929206 -0.5896667 0.11418705 -0.9230184 -0.2483605 0.6431661 -0.4670055 0.1949407 0.5076904 -0.46057937 -0.14315844 -1.5070456 0.27019408 0.03134391 -0.6941584 -0.46182612 -0.21542682 0.029053504 -0.120278694 0.48266956 0.14204943 0.7529539 0.121002555 -0.60871935 -0.82916147 -0.07803016 -0.6738465 -0.11148774 0.4674625 -0.3133119
lớn 0.25848737 0.5334147 0.267421 0.39437568 -0.95180005 0.1938225 0.4148519 0.112385616 -0.53387505 -0.12616454 -0.118489645 0.057182565 0.22149037 -0.019190846 -0.2428135 0.38201848 0.39431337 0.44021794 0.42312902 0.6723207 1.3085225 -0.13003454 0.25206468 0.07808975 -0.022725023 0.046804085 -0.72934693 0.031769358 0.27719125 -0.2775099 -0.07271582 0.0063712313 0.16738623 0.42752466 -0.08610241 0.012810164 -0.42685962 -0.10834501 -0.6054897 -0.060896378 1.1754131 -0.7445933 -0.123722 -0.088685 1.080173 -0.6521926 -0.5929649 -0.4147903 0.5186336 -0.24927224 0.27169472 -0.91867954 -0.8172001 0.5977214 0.004245178 0.39540857 0.03917628 -0.23712194 -0.27427492 0.20782205 -0.43553048 -0.04471544 0.16566387 0.49061868 0.37042618 -0.21155183 -0.14566387 0.103260465 -0.2791497 -0.93458337 0.080912896 0.50291896 -1.6711437 -0.12655161 0.2098695 -0.46943608 0.58230436 -0.67219883 -0.45217624 0.7125421 0.53064066 -0.102227606 -0.645456 -0.06825921 0.032853793 -0.28590983 -0.39267802 -0.2721061 -0.51950604 0.32419828 0.018663637 -0.47956645 0.072819985 -0.14127807 0.14819711 -0.6644069 -0.22525351 0.73704374 -0.95352715 -0.26750317
con_người 0.49190962 -0.21136466 -0.07362542 -0.6661899 -0.55280966 0.46188074 -0.21554643 0.5204302 0.0067237597 -0.51515365 -0.03409822 0.17127198 0.44626856 0.80542225 -0.4321364 -0.10725871 -0.4346937 -0.42759258 0.08566032 0.539577 0.070724696 0.76556534 -0.41572446 -0.9858437 0.33138847 0.5660113 0.29404664 -0.5072528 0.7477264 -0.06929856 -0.5510469 -0.37046131 0.02570477 0.7282224 -0.255896 0.07135019 -0.3223315 0.12626033 -0.69586134 -0.3082492 0.47718644 0.20179158 -0.10174771 -0.29883227 0.9891021 0.90198916 0.74925745 -0.4699699 0.29565132 -0.9352434 -0.44180042 -0.1961467 -0.08614507 -0.27391762 0.06137161 0.47233692 0.3404436 -0.45442286 0.03018046 0.5685382 -0.43594602 0.5878598 -0.1149025 1.3308643 -0.055000402 0.6202817 0.5824389 0.41381484 -0.057104446 0.14072923 0.23919517 -0.83381575 -0.831831 0.6142158 -0.19093797 0.29253104 -0.37100312 0.19244647 0.29846504 0.31533915 0.18472926 -0.5080378 0.10724363 0.2671586 0.6151462 0.44468817 -0.37848344 -0.49418074 0.5316125 0.5776331 0.265457 -0.29597822 0.23370959 0.15423875 0.0122278845 -0.51272154 0.1806203 0.7152416 0.09695878 -0.15306887
sống -0.0028307089 0.46622816 -0.39909118 -0.24007367 -0.41811058 0.48187852 0.17913716 -0.61861616 0.3221158 -0.4909352 -0.09739184 0.21052746 -0.255136 1.0798537 0.38221386 0.7878522 0.80800074 0.14278011 -0.30339965 0.28771457 -0.76535887 -0.13135184 -0.49207947 0.136318 0.28981912 -0.30375856 0.16033839 -0.14473408 -0.37760568 -0.39316604 -0.24799865 -0.27076432 -0.35611153 0.39591113 -0.13738847 -0.05931992 0.087370515 -0.3917378 -0.18211603 0.6808507 0.5104877 0.5628832 0.36915907 -0.68757546 0.96415347 0.91625786 0.33367303 -0.12779997 -0.25799513 0.4164678 0.7653511 -1.1200944 0.16060482 -0.2755668 -0.41254315 0.002790832 0.13714045 0.44422686 -0.58968914 0.016524352 -1.0222454 0.31289336 -0.7586399 0.19615288 0.15891333 0.35714597 -0.3109432 0.66763407 0.5709745 -0.49884212 -0.19996509 -0.5359506 -0.59863114 -0.2270268 -0.5800807 -0.11034256 0.05336238 0.7772446 0.9370858 0.22207572 -0.08439865 -1.1165063 0.55607545 0.57714665 0.45874554 -0.70414144 0.04436833 0.00018170326 0.3719933 -0.09162784 0.7576218 0.015315302 -0.40537465 -0.6542782 0.04499277 -0.16532286 -0.21548513 0.9044949 0.27603167 -0.03368004
ở -0.6940608 0.07731188 1.0430707 -0.5388777 -0.46348646 0.27924845 -0.2925345 -0.63971037 0.2758729 -0.48336998 -0.3111175 0.15734516 0.4970311 0.21961038 0.17214668 -0.080876485 0.43417874 0.191628 -0.071570486 0.43408296 0.21422593 -0.35183734 -0.30482158 -0.265066 -0.2649214 -0.5736962 -0.42000434 0.20562623 0.6015729 -0.2848262 0.81764483 -0.23525503 -0.077434294 0.19405788 0.06674814 -0.8194926 -0.544968 -0.83356863 -0.111865215 -0.36416608 0.24113572 0.22242345 0.49605802 0.3657744 0.15783867 0.057538908 -0.71370876 -0.50637394 0.55186933 -0.5123688 0.3502063 -0.3781989 -0.27266946 0.36964864 0.735172 0.29537275 -0.49757135 -0.28115028 -0.20077528 0.14184135 0.112126924 -0.060923405 -0.3899994 -0.17199618 0.6854348 0.59375983 0.14528155 0.23034069 -0.6799385 -0.45801014 0.01023979 0.3379696 -1.1900415 -0.5560989 0.2041577 -0.78990215 0.013955542 -0.15929408 0.68445647 -0.083121255 0.12285095 -0.87176925 0.47296733 -0.7220078 0.19588448 -0.25544795 0.4658965 0.43448818 -0.878716 0.39608103 0.50613314 -0.71936876 0.408584 0.6417894 -0.43234023 0.42800236 0.09783795 -0.0946643 -0.08747917 0.4142009
nam_cực 0.43708736 -0.6653315 -0.20441759 -0.8493353 -0.22248742 0.020837363 -0.37746698 0.21170762 -0.35559696 -0.48698646 0.08025252 -0.4815869 -0.11440638 0.19014871 -0.17616051 0.5636513 -0.38342515 0.18807057 0.023900492 0.32041356 0.49314278 -0.1079972 -0.16494288 -0.15369882 -0.043462187 -0.2366669 0.1188409 0.39018923 0.8865812 0.9997821 0.2573639 -0.15295526 0.04315054 -0.597033 -0.26511195 -1.0008514 -0.06898149 0.21289478 0.11792863 0.3222058 -0.12192081 0.7611571 -0.7189346 -0.6706986 0.21455128 0.10693038 0.15603185 -0.35330805 0.2967304 -0.2803869 -0.018330991 -0.55204207 -0.2392565 0.30544552 0.4522587 0.046230022 -0.34607682 -0.40109769 0.011871705 -0.28147775 0.69326293 0.1708956 -0.08791199 0.5213611 0.6729223 0.1225393 0.066014975 0.14070468 -0.32244074 -0.45342147 0.75567514 -0.18139182 -0.80126405 0.30577838 0.21559767 -0.19994289 -0.6790085 -0.22089733 -0.19298975 -0.22838502 -0.2359818 -0.6157364 0.30335245 -0.08930293 0.52410513 -0.35679704 -0.29036728 0.52505165 -0.4329811 0.19882502 0.32210895 -0.79010767 -0.50475186 0.04177961 -0.0812696 0.26725224 -0.00063502183 0.40748557 -0.36257353 0.50601196
nhiều -0.5370571 0.05474549 -0.48165596 0.0010239225 0.15135819 -0.012159619 0.23219226 -0.23120728 -0.20856957 0.13930154 -0.08014894 0.837008 -0.33292225 -0.6294964 0.23022479 0.11748 0.66782033 0.46293512 0.3051267 0.07925929 -0.1000111 -0.46366882 0.12111712 -0.41997707 0.9286741 -0.37442464 0.3507477 -0.0480789 0.25221944 0.13749628 -0.5272224 0.22571957 -0.8557064 0.37379614 -0.2699636 -0.68123263 -0.6231376 -0.13139184 0.012363583 0.07710308 0.30682835 0.3853915 0.08453285 0.32359728 0.43833458 0.2751874 0.111303955 -0.40957958 -0.29386914 -0.09657237 0.27420226 0.29193458 -0.6088576 -0.4151031 0.6577338 -0.4240387 -1.0596573 -0.21560657 -0.3890421 -0.082237415 -0.6265767 0.024542492 0.12207539 0.13109283 -1.0914782 0.47206372 -0.33751646 -0.14193517 0.43159583 -0.4023634 0.45707047 -0.17713208 -0.46910736 0.26700723 0.019609049 -0.45176238 -0.55428284 -0.22442043 0.548334 -0.11159146 -0.8996067 -0.95006233 0.64288634 0.36903137 -0.30949184 -0.32456386 -0.119267344 -0.10669721 0.4234799 -0.42983297 -0.20241122 0.29154694 -0.27714184 0.5834903 0.32860023 0.1399726 -0.73816514 0.7063229 0.118478045 0.62384564
hơn -0.18103439 0.28581387 0.016193094 -0.5375925 0.43884662 -1.205731 -0.12893891 0.021885162 -0.57827485 -0.7914932 0.24161832 0.008201116 0.2777438 -1.2401491 0.25328726 0.4753627 1.0367945 0.40050066 -0.4582339 0.09423666 -0.0818901 -1.2110769 -0.8605493 0.9979265 0.90401554 0.56479686 0.04902117 -0.6358998 0.5754878 -0.11482367 -0.09572584 -0.36427292 0.015657267 0.073181964 -0.8896214 0.02342949 -0.009979709 -0.2673926 0.3076772 0.9804903 0.33811933 -0.23304905 0.6103568 0.41606244 -0.43254045 -0.7870581 -0.1600491 -1.1199372 0.24833341 -0.015740018 -0.17767926 -0.5951904 -0.76053673 0.5578496 1.0572249 0.2730071 -0.37609404 0.2844457 -0.4868313 -0.31058535 0.51680213 -0.27305937 0.4226769 0.13284099 0.19481142 1.0739107 -0.11602773 0.48702052 0.5076284 0.09097242 0.65357 -0.16283543 -0.27082154 0.5042711 0.071506746 -0.14015298 0.1823863 0.25257128 0.22086369 0.6229734 0.20079875 -0.47914144 -0.037843578 -0.23028708 -0.27420634 0.032020222 -1.0481143 -0.0076182354 -0.10897598 0.033962913 0.13252023 -0.29797512 -0.45498756 -0.28858474 0.049390763 0.47041366 -0.5937333 0.49073014 -0.5505457 -0.7587569
bắc_cực 0.18202484 0.35416842 -0.24487276 -0.858011 -0.18610801 0.02734033 -0.48137653 0.0057655224 -0.41894585 0.2492271 0.016475057 0.24868062 0.5666024 -0.00976158 -0.036166538 0.31589782 0.16525991 0.6290053 0.19777846 -0.0056527853 0.3873889 -0.1041938 -0.24289837 0.007942956 0.60357136 -0.5470907 0.15531164 0.8661111 0.6444585 0.44841576 0.8301474 -0.21456772 -0.35206535 0.22111286 -0.26689708 -0.173773 -0.13525318 0.41720974 0.4300881 0.6074289 -0.25329095 0.7594515 0.5912395 -0.22673945 0.7295775 0.17610326 -0.21036488 -0.65317327 0.26688436 -0.5426507 -0.19956207 -0.4576662 0.04414734 0.11660434 0.18488446 -0.066802874 -0.9738698 -0.17265065 -0.4266642 -0.5887937 0.01799437 0.47422042 0.5263588 0.16668406 -0.032579295 0.3706084 -0.04366524 -0.038867254 -0.57340866 0.005375994 0.94458604 -0.4114558 -1.4325813 0.16933304 0.07522101 -0.06525874 -0.12896991 -0.11703562 0.7222279 -0.050730094 -0.4958128 -0.58643156 0.53169674 -0.69700646 0.85649 -0.5443085 -0.41167814 -0.11945955 -0.7201161 0.042815384 -0.09528326 0.22807497 -0.20505835 0.3444699 0.2613692 -0.19762707 0.1427421 0.43502775 0.2358074 0.10986647
lúc 0.9606789 -0.4467029 0.35886213 0.24799396 -0.015817296 -0.76452273 -0.5435906 -0.03032066 -0.38077325 0.2767315 -0.347184 -0.6766502 0.20876674 -0.44814378 -0.60234046 0.6313352 0.12873577 0.67449343 -0.18910897 -0.97415715 1.3554488 0.78740644 -0.058553047 -0.66420215 0.38003018 0.3003768 -0.2994293 -0.17316571 0.6116879 -0.1837474 -0.45054835 -0.43660825 -0.29668656 0.47095272 -0.28481197 0.09319963 0.012333147 -0.062039725 0.20105286 0.14985137 0.9015062 -0.08734811 -0.34765443 0.14322534 0.0021316574 -0.18648803 -1.0639176 -1.4284625 -0.60427076 -0.12762363 0.21037169 -0.84287995 -0.40740955 0.50193197 -0.5246261 0.59824735 -0.13762198 -0.19820762 0.794134 0.32962787 -0.5728926 0.8364834 0.15700607 0.60337335 0.06640319 0.23732023 -0.36271197 0.8106039 -0.6417135 -0.3453324 0.25168392 -0.37273148 -0.9279099 0.123445086 0.3055702 -0.3527928 0.23220901 0.17114034 0.6000459 0.7268113 0.15954895 0.087839365 0.6087656 0.038345683 -0.15589267 0.011717089 -0.96016204 -0.6977542 0.02889655 0.12657756 -0.71332663 0.33920315 -0.46234354 -0.24401344 -0.29607594 0.100441344 -0.13909298 0.3392415 -0.97180396 0.09682566
nước 0.5092893 -0.31018952 0.15913208 -0.11648417 -0.34930134 0.27708617 -0.71433496 0.17896818 -0.16925251 0.08532185 -0.44496056 -0.50018394 -0.2050957 0.23586418 -0.50031507 -0.104913466 0.51501054 -0.31425825 0.30325088 0.5617797 0.32453528 -0.35684207 -0.16699317 -0.43635386 -0.7575436 0.5175972 0.50005347 0.21572362 0.29513645 0.2315774 -0.23952876 -0.46268103 -1.1723044 0.34553716 -0.14245908 -0.800626 0.52489424 0.07211211 0.2916414 0.13729489 -0.22601186 -0.2893139 -0.52775216 -0.42116433 0.29711023 0.81500095 0.115894 0.0027684062 -0.000878906 -0.43457133 0.28442553 -0.096312135 -0.55578834 -0.09955682 0.043635905 0.0048173373 -1.2734355 -0.15699041 0.73948044 -0.46124315 0.048472013 -0.09339981 0.10212339 0.39548007 -0.6819779 -0.36604178 0.25032675 -0.0022064876 -0.22865781 -0.4879781 0.2856493 -0.52427465 -0.45000458 -0.0899775 0.035384394 -0.78046423 -0.111915536 0.22868553 -0.35271078 0.31898704 -0.28618813 -0.41360146 -0.029372463 0.30341563 0.7606223 -0.2111167 -0.3372279 0.7689496 -0.28583154 0.4492742 0.791169 0.5817773 -0.3766125 -0.18722008 -0.5345979 0.2544431 -0.44943488 0.48721504 -0.7196351 -0.16910267
khu_vực 0.72407514 0.16561049 -0.2443118 -0.36412504 -0.6073557 -0.37670836 0.42210448 -0.14449377 0.44531238 -0.31503245 -0.33590955 0.757782 0.36709747 0.3571845 -1.1082058 -0.23176996 0.14696036 0.4005438 0.6155872 0.24931951 -0.3435856 -0.011533343 0.1525071 -0.70323133 0.61212283 0.049440656 -0.5047722 0.2225552 1.3324364 0.19539066 -0.6519901 -0.5562783 -0.27100134 0.23837388 -0.5443384 -0.62616897 -0.43082184 -0.5904036 -0.117769584 -0.16796479 0.047775105 -0.8941442 -0.2154419 0.3021171 0.22519836 -0.5852214 -0.25392285 0.021422485 -0.3385909 -0.24477631 0.326376 -0.28869072 -0.3582418 0.45203698 0.93690866 0.074429005 -0.64202285 -0.122164756 0.35590455 0.1250703 0.3871686 -0.3186298 0.58106166 0.52966255 -0.20191295 0.9366915 -0.031694148 0.21718521 0.32065913 -0.3699631 -0.4252685 -0.35746965 -1.2707342 0.14907847 0.6272999 -0.38857314 0.11274513 -0.24598534 0.8785013 0.12364466 0.24324842 -0.08352826 -0.6313684 0.75533354 0.3574516 -0.12285956 -0.5974923 -0.056379423 -0.6681374 0.40494415 0.32939103 -0.26629105 -0.020147312 -0.18067068 -0.33129287 -0.056071345 -0.36069474 0.3721668 0.55580735 -0.44486845
sông -0.23891278 0.47487321 0.042456847 -0.37932622 -0.12982026 -0.17550574 0.2984741 -0.77331823 0.2927843 -0.073225126 -0.09788642 0.2495983 0.5692947 -0.4439276 -0.30647436 -0.41020504 0.99312353 -0.10392317 -0.110310994 1.0730658 0.04148412 -0.03906992 -1.0396188 0.06674231 0.77851987 0.17275608 -0.21036528 -0.022059489 0.11091894 -0.40828913 -0.037188508 -0.032033645 -0.19171603 0.6488467 -0.47747177 -0.54272914 -0.16500346 0.091466285 -0.0026377004 0.2141573 -0.029953916 0.02109141 0.5856593 0.5034157 0.6220674 -0.5307064 0.47519988 -0.061654937 0.65076303 -0.29802695 0.45850652 -0.1684566 -0.20234197 -0.24691123 0.74558544 -0.15834859 -0.80269456 0.0848696 0.86602366 0.21698993 -0.47866404 -0.42975402 0.02976116 0.30277607 -0.47359958 0.61766726 0.21023801 0.6123522 0.27237982 -0.09931229 -0.08224116 -0.6061518 -0.21963389 0.046018843 0.26267204 0.09524347 -0.2618275 0.021213166 0.112648204 -0.11554374 0.5938967 -0.43153083 0.15710558 -0.12556277 0.22092707 -0.7860166 -0.68697095 -0.5468656 0.43345937 1.1529313 -0.15088487 -0.9898135 -0.049328372 0.43876252 0.2615904 -0.62452847 0.2692556 0.21712086 0.17308348 -0.47516885
đá 0.82889694 -0.24380392 0.3097268 -0.34396446 -0.8727575 0.46225172 0.28354982 0.32385424 -0.57990944 -0.1910873 0.61896795 -0.15208949 0.3037234 0.109894045 -0.13271625 -0.24898528 0.44088793 0.58464086 0.29231662 0.44322807 0.6567624 -0.61679894 0.52334 0.39840347 0.4603792 -0.41213036 -0.7013346 0.5213315 -0.08949224 -0.14708248 -0.32048017 -0.11479601 0.18572223 0.73269033 -0.011424449 -0.22099325 0.0029871191 0.51066804 0.2497823 0.22002558 0.6560412 -0.3137971 -0.35748252 0.05855386 0.4676992 0.2365897 -0.19302821 0.54196197 0.9480087 0.13168152 0.49476266 -0.4139969 -0.061907664 0.71312237 0.20024279 -0.027677665 -0.2667488 0.1192958 -0.28155842 0.03295428 -0.7023157 0.0153400935 0.33344176 0.07577396 0.17135353 -0.05233179 0.015254871 0.73366034 0.32525253 -0.43045247 0.32594576 -0.4939198 -0.7969974 -0.005117463 0.014083369 -0.046620496 0.1976944 -0.44285575 -0.18880099 0.03293793 0.33046898 -0.44971445 -0.06041547 0.278253 -0.2717154 -0.39063054 -0.6166123 -0.0069916616 -0.1166099 0.91632164 -0.6583071 -0.76851237 -0.76208884 0.062173095 0.017504774 -0.3071419 0.6234761 0.1336651 0.40424332 -0.07845497
phải 0.4167201 -0.13942115 -0.18291895 0.053687274 -0.2805542 0.0023820759 -0.19553687 0.19988914 0.49892467 0.17023104 0.24359684 0.0986706 -0.058631144 -0.44170696 0.011324126 -0.21026295 0.49525794 0.37900636 0.64600515 0.7616479 0.018135067 -0.64747685 -0.34871924 0.15020043 -0.17283605 -0.6213153 -0.78741056 -0.27454692 0.57868874 0.22473957 0.10122897 -0.37304088 -0.27455986 -0.040275794 0.16473946 0.1872729 0.20755379 0.8156379 -0.5030542 0.12395825 0.5549043 -0.049824793 -0.6882499 -0.12484174 -0.017886177 -0.6700458 -0.018112205 0.08018843 0.42224386 0.100895904 -0.24689 -0.44585827 -0.090765126 -0.14926358 0.4129271 0.11376178 -0.44781628 -0.42753628 0.25611424 -0.11042454 0.21257381 0.19808587 0.042615093 0.4830906 0.045643 0.15525891 -0.3616655 0.4847659 0.6467418 -0.118661866 -0.13608855 -0.4453195 -0.68846095 0.042492077 -0.34829363 0.07696789 0.39898995 0.16047402 -0.2973571 -0.10216026 -0.30557626 0.12259078 -0.06210101 -0.21038283 -0.09039241 0.068394504 -0.45586532 0.12815705 -0.04011091 0.35677454 0.4564615 -0.73163927 -0.04371339 0.051564563 -0.101938844 -0.035963397 -0.09824752 -0.29033136 -0.3836739 -0.4481996
bảo_vệ 1.2079176 -0.48477405 -0.12431805 0.22107455 -0.46939033 0.31426835 -0.010693267 0.14298466 -0.008941408 0.1828154 0.0074218595 -0.52059996 -0.16340081 0.082707435 0.6391514 -0.58126473 0.8986187 0.5385765 0.05782382 0.3482406 -0.7906536 -0.38775912 0.15069915 0.5002875 0.84083 -0.68057877 0.46909675 -0.4526325 0.28047004 0.06581134 -0.106005356 -0.11427631 0.34256315 0.40756735 -0.0777123 -0.18365239 0.51580346 0.5814295 0.27707386 0.11096546 0.5637775 -0.4954368 -0.18855777 0.3561423 -0.19440743 0.7491144 0.15096484 -0.08721807 0.35830536 0.6617097 0.21921703 -0.4310502 0.37235925 -0.30402675 -0.61355406 0.55346 0.08521197 -0.17998463 -0.106783055 -0.12003866 -0.4853868 0.70534235 -0.8006433 0.2330788 -0.56727964 0.6289467 -0.16697125 0.7478747 0.2684968 -0.22432046 0.022969272 -0.9588484 0.030297007 -0.18182488 -0.7761562 0.60228616 0.09371262 -0.5751722 0.6661703 0.028577067 0.089568175 -1.2130218 -0.3149931 0.11795114 -0.016993158 0.45504767 -0.19879407 0.011872818 0.32943657 0.34436095 0.21619986 0.38311204 -0.9590326 0.348084 -0.7179416 -0.38222313 -0.21461344 -0.17439872 0.6646226 -0.6481449
đáy 0.98364764 -0.06339061 -0.7991692 -0.3697978 -0.80365026 1.0244577 0.49045113 -0.03947121 0.39889792 -0.11896034 0.3170469 -0.3999682 0.4126552 -0.45538458 0.38219106 0.7043737 0.85132223 0.6959534 -0.18841228 0.019734023 0.8082125 0.10937369 -0.10232067 -0.018133119 -0.19862196 -0.60302305 0.3644687 -0.0038401461 -0.11837713 0.21936138 0.45585707 0.071782395 0.37860057 0.5145126 0.04294191 -0.1374816 -0.35963237 0.43334475 -0.11991978 0.6788055 0.34497878 0.38784084 -0.4190333 -0.12993364 0.053747248 0.21126913 -0.121310204 -0.49748656 0.4744098 -0.18365893 -0.8184317 -0.1786788 0.584593 0.38818657 0.30022466 -0.7831921 -0.047951575 0.008600937 -0.23744617 0.512869 -0.20192358 -0.13683845 0.05833617 0.8490083 0.0936212 -0.00067027553 0.3175717 0.32729968 -0.043677516 -0.57596684 1.0153794 -1.119783 -0.7767337 -0.1769836 0.087906934 0.17596582 -0.1759772 -0.21537584 -0.09121565 -0.020662978 0.29270595 -1.0794227 -0.2521547 -0.7562774 0.20607235 -0.43927848 -0.1663607 0.4983136 -0.8223504 0.8851259 -0.41937557 -0.14498413 0.00196795 -0.16649517 0.40670156 0.080005385 0.52727234 0.29189277 -0.44226733 -0.6083855
thế_giới 0.33483586 0.23305337 -0.20901103 0.28908488 -0.13115992 0.40710896 0.5618011 -0.5776465 0.34343365 -0.4047619 -0.49757305 0.06862365 0.82011104 0.9887748 -0.21534297 -0.2617475 0.42713082 0.8948926 -0.7054468 0.82735205 0.42581496 0.15722111 -0.026894059 -0.33064398 0.3185274 -0.0780807 -0.027574543 -0.37333727 0.2695942 -0.2633132 -0.2401692 -1.3076539 -0.3180801 0.5062528 0.033716336 0.5306521 0.5539788 0.54980075 -0.057619914 0.6106391 -0.33803263 -0.7637532 0.4518727 -0.29328063 -0.8948207 0.0025154247 0.06275968 -0.810719 0.020823834 -0.32581863 0.16814733 -0.6373975 -0.13894941 -0.3858451 0.07283956 0.35656914 -0.7551992 0.21443772 0.057172175 0.20909265 -0.16452345 0.06251558 -0.16715087 0.2727263 0.48317012 1.3731483 0.4683931 -0.2669311 0.07529075 0.38348562 0.36122084 0.023301091 -0.9174087 -0.6314664 0.44256863 0.7739934 0.42313224 -0.33025858 1.0247777 0.051720113 0.14658807 0.06386079 -0.017006597 -0.43593922 0.6274274 -0.40358424 -0.70843166 -0.46203712 -0.19778529 -0.031163182 0.9894961 0.42283687 0.22613001 0.5519175 -0.44554958 -0.6211697 -0.03915188 0.18734245 0.81016123 -0.4027268
chỗ 0.43603793 -0.050631993 -0.74056333 0.32955125 -0.19566847 -0.40588892 0.16300312 -0.15350455 -0.20104375 -0.7316621 -1.232687 -0.14026128 0.38207793 0.7572617 0.11903119 0.21579678 -0.10377946 0.27683967 0.21372055 -0.009495931 1.4566258 -0.9543787 0.07292045 -0.534677 -0.13227819 0.24943644 -0.50526273 -0.1517871 0.61256766 0.7387137 0.25576308 -0.2456559 -0.66824985 0.34046802 0.90149534 0.03411869 0.5878157 0.24845068 -0.3641216 0.42465562 -0.07834799 -0.7298496 -0.057215966 -0.15314852 -0.48154896 0.048300378 -0.09362369 -0.47058502 0.6826782 0.04924101 0.22421548 0.17863198 0.15301226 -0.1452319 -0.0064753187 0.28881875 -0.12174205 -0.39184675 -0.08912752 -0.2816499 0.00964411 -0.25743556 -0.39518252 0.40168273 -0.82820433 0.7097411 0.2706556 -0.32772002 -0.42381653 -0.42120868 0.30777636 -0.551021 -0.1627962 -0.30898628 0.45491236 0.3845682 0.01969494 -0.29306436 0.42931014 -0.13442422 0.510583 -0.21351232 -0.18075672 -0.5401228 0.34739015 0.42060208 -0.09922517 0.17947589 -0.6964271 -0.11120857 0.3792096 0.24240306 0.17426866 0.054764424 -0.6040646 -0.42534277 -0.74135906 0.09630051 -0.82031924 -0.83666396
lạnh -0.1303934 -0.19517305 0.044584807 0.141008 0.34055564 -0.55844617 -0.31575525 0.11429308 -0.3225595 -0.7549958 -0.13288295 0.3536957 0.61157 -0.20140933 -0.4027447 -0.07854123 0.3033153 -0.22784802 0.6672489 0.40938142 0.5249169 -0.34896684 -0.61605465 -0.49685952 -0.04537611 0.6288659 -1.2723919 -0.060633596 -0.15233089 0.4939227 -0.35810906 -0.15808563 -0.59475833 0.8761642 -0.25253177 0.14883922 0.40483126 0.38237572 -0.70940936 0.48256317 0.3573776 -0.862584 -0.27545044 -0.27428132 -0.24970978 0.29055777 -0.12211369 -0.57432896 0.7617657 -0.7378033 0.53078306 0.07798688 -0.8597991 -0.38377073 0.6711913 0.098429926 -0.5253506 0.36282283 -0.1633257 0.2587876 -1.0542274 -0.8861432 -0.085622296 0.5933678 -0.69723415 0.6010305 0.08308444 0.9672635 -0.55909014 0.4295296 0.31243423 -0.54056704 -0.030718558 -0.20607024 0.57924694 0.093188465 0.39231905 0.22270782 0.41534835 0.08337425 0.24874899 -0.2634828 -0.35616583 0.061634198 -0.39466047 -0.7780975 -0.47997406 0.35639724 0.09659058 0.19878456 -0.24874647 0.40578464 -0.07722951 0.32797426 0.8269321 0.42835099 0.18932776 0.016136682 0.93953246 -0.7197361
nóng -0.037947286 0.26295266 0.07253767 0.2909474 -0.2982577 0.320137 0.1685418 -0.17614953 -0.33824068 -0.17000149 -0.27682236 -0.07523298 0.18401821 0.109972924 0.16050388 0.06719121 0.13440822 -0.3270768 0.5001902 0.54543763 0.85598874 0.20926976 -0.91477466 -0.19221078 0.6314046 0.6670777 0.44110656 0.32513297 -0.108014494 0.018123824 -0.6535155 -1.0206043 -0.6907021 0.28473106 0.056952074 -0.7623031 0.19714347 -0.11153591 0.14938676 0.20247397 -0.4391847 -0.20895627 0.59343654 -0.47414082 -0.12527142 0.2157483 -0.36669245 -0.45264903 -0.23908287 -0.8276138 0.7268636 -0.13798244 0.04444903 -0.098365396 1.1049079 0.65319365 -1.1134224 -0.36664388 -0.39609653 0.15167896 -0.49798235 -0.5540478 -0.061519235 0.3531942 -0.91145205 0.5122221 -0.88139045 -0.2862416 -0.61109865 -0.0011696842 0.8532773 -0.8779159 -0.46094358 -0.2312963 0.45439368 0.27118173 -0.18900876 -0.22992934 -0.39017043 -0.15506631 -0.16557005 -0.51160455 -0.17295255 0.77796566 -0.08835018 -0.7744297 -0.742826 1.1076669 -0.28559008 -0.24550372 -0.020462276 0.2622501 0.21335743 0.7754527 0.2378599 0.12620093 -0.55332404 0.5772963 0.37094483 -0.36404726
sáng 0.55697334 -0.47343734 -0.3742384 0.0520446 -0.2780702 0.26144344 0.16826768 -0.15628976 0.15804173 -0.25228962 -0.2735625 -0.16197652 0.35409835 0.2440004 0.107501276 0.15823974 -0.3074678 -0.3470841 0.39971486 -0.06769669 1.0455916 -0.29455784 -0.38414067 0.24547783 0.52563286 -0.7657747 -0.33582675 0.014042979 0.7692164 0.13846964 -0.34406397 0.59811664 0.16811773 -0.026818313 -0.07172 0.09159291 -0.15894935 0.7652979 -0.3050957 0.16916564 0.15324104 -0.16548362 -0.34769905 -0.31084898 -0.5461759 -1.0489937 0.1823186 -0.35200378 -0.26978567 0.5548051 0.31460473 0.27360493 -0.092146605 -0.7728633 0.38867265 -0.42534775 -0.2669395 -0.22679035 -0.8378969 -0.76002747 -0.29851937 0.5572077 0.15865189 -0.13465087 0.1298049 1.2559924 -0.9833023 0.73757774 -1.0243449 -0.22146912 0.3183406 -0.74375397 -0.20758983 0.24110685 0.65540314 -0.42296374 0.20279975 -0.63418365 0.6021497 0.026637336 0.2014491 -0.5467731 -0.08148195 -0.048207708 0.37461773 0.116451085 -0.43885207 0.4011355 0.48733518 -0.15690558 0.1130484 -0.9490931 -0.80853856 -0.104412995 0.14376412 0.7886453 -0.30003914 -0.25775635 0.19015487 0.3020695
màu -0.05633687 0.84927166 -1.3124038 0.0057925414 -0.47676677 0.48992863 -0.11164862 0.33502957 0.045115218 0.2137666 0.6429062 0.31127965 0.8776478 0.74208736 -0.4572071 -0.034782022 -0.22992657 -0.22282052 0.08165494 -0.14390697 -0.8204008 -0.43892542 -1.3140366 0.46621475 0.48280957 -0.014440201 -0.03731636 -0.07191296 0.4397008 -0.1312371 -1.2140514 -0.28420472 1.1024885 -0.12720732 -0.48866633 -0.30985937 0.22254437 -0.05043215 0.5213583 0.058951616 -0.20184392 0.22206382 0.009962402 0.28757617 0.32819957 -0.4543727 0.15570709 0.034985732 -0.16319606 -0.0059636626 0.8171184 -0.1556474 0.46152115 -0.3662234 0.21373464 -0.44070697 -0.364134 0.31055686 0.2065148 -0.6003238 0.28340816 0.051066376 0.13032909 -0.20971355 -0.1983349 0.4928251 -0.12009723 0.36706138 -0.48156455 -0.7784444 0.4271882 -0.6216491 -0.67135614 0.51970226 -0.109279014 0.45218217 -0.19042104 0.113422185 0.23774606 0.67015076 -0.39002156 -0.47510004 0.0812769 0.47577575 0.60261434 -0.22999647 0.36310643 0.52787846 0.30739242 -0.06411473 0.57808286 -0.32911918 -0.8949108 -0.50083196 -0.6090159 0.6640119 0.22815388 0.049733017 0.19734627 0.55754536
hay -0.12758602 -0.50301206 -0.39157736 -0.18166576 -0.014152656 0.030923894 0.07094831 0.33236817 -0.20698832 0.39493614 -0.36676237 -0.6340115 0.6482525 -0.32501134 0.32044262 0.3781336 0.27312097 0.014964892 0.14400424 -0.84822696 0.15178366 -0.67764276 -0.4083433 -0.27858838 0.14503697 -0.13438846 0.48888016 -0.5515316 0.5341608 0.8263551 -0.2751768 0.29492888 0.81799173 0.39958578 0.23575869 -0.09849583 0.1290514 -0.00697829 0.507492 -0.31818148 0.4972476 -0.11234787 0.13334365 -0.27856284 0.39605904 -0.86758214 -0.55561626 -0.5389749 -0.18771952 0.12886664 0.74505055 0.2812017 -0.1996749 -0.82644874 1.3403138 0.5455705 -0.5237902 0.32813686 0.4213569 0.024768079 -0.0057629617 1.0181869 -0.4689701 -0.120068476 0.022439053 0.5559027 -0.47941932 -0.5295441 0.059412044 0.057002265 -0.48738888 -0.2090191 -0.7582739 0.56424695 -0.20973459 -0.15765429 0.5377145 -0.43881106 0.759165 1.2033471 0.43641764 -0.11556725 0.27447024 -0.53952724 -0.40235054 -0.1394616 0.54094386 0.2660078 -0.6860367 -0.18412533 0.3984492 -0.102098055 -0.24282317 -0.71523696 -0.38525224 0.15948276 -1.0023087 0.24836002 0.25478733 -0.18165623
